set 0.078192 0.039382 -0.044310 -0.087383 -0.086707 0.041012 0.176305 0.049190 0.041761 -0.052810 0.000713 -0.036817 0.001891 0.081898 0.066357 -0.026607 0.154237 0.043123 0.014418 -0.090096 0.013134 0.052752 0.013339 -0.077554 0.094728 -0.010921 -0.015243 -0.122156 -0.069068 0.067155 0.097807 0.219567 -0.040698 0.026549 -0.053746 0.045089 0.043464 -0.083758 -0.030845 -0.091846 0.086032 -0.089297 -0.057328 0.177108 0.094593 0.043123 0.078342 0.190734 0.062285 -0.054449
bound 0.033782 0.017597 -0.007586 -0.042532 0.000302 0.006668 0.027623 -0.008259 0.007361 0.025553 0.008892 -0.056414 0.019818 0.016937 0.038533 0.006049 0.065656 0.006179 0.014436 -0.048817 -0.050046 0.047892 0.001343 -0.034086 0.063973 -0.053664 -0.048676 -0.033898 -0.015474 0.015770 0.024394 0.078637 -0.002049 0.011747 -0.017796 0.017511 0.002274 0.003482 -0.011777 -0.046078 -0.032902 -0.041737 -0.025773 0.051600 -0.006527 -0.000256 -0.005565 0.061775 -0.012546 0.010463
level -0.028889 0.027772 0.015184 0.054714 -0.010088 0.078605 0.042847 -0.091685 0.020982 0.069968 0.021820 0.021064 -0.048341 0.069782 -0.104070 0.088707 0.054258 0.035337 0.010458 0.016036 0.039863 -0.066888 0.046583 -0.098035 -0.074622 -0.046629 -0.046982 0.045432 -0.048151 -0.013096 0.044197 -0.032731 -0.024232 -0.075839 -0.138580 0.010064 0.043327 -0.085509 0.094835 -0.045891 -0.023049 -0.018159 -0.061583 0.027318 0.024708 0.062309 0.016210 0.041904 0.021938 -0.000492
attribut 0.014735 -0.021110 -0.016505 -0.026985 -0.041536 -0.031748 -0.001746 0.001321 -0.034187 0.029325 -0.021978 -0.040965 -0.001742 -0.002193 0.049173 0.031390 -0.006844 -0.016108 0.005811 0.000863 0.023016 -0.006459 -0.005993 -0.016683 0.004893 0.028833 0.023909 0.062873 0.000712 0.003177 -0.013696 0.034337 0.028997 0.036331 0.045076 -0.016151 -0.033511 0.005312 -0.003861 -0.028015 0.006471 -0.020773 0.025571 -0.009833 0.012803 0.027030 -0.020308 -0.042743 -0.000978 -0.018715
distribut 0.032908 -0.012993 -0.033433 -0.035596 -0.009109 0.033317 -0.028751 -0.016452 -0.038599 0.012482 0.070423 0.032859 0.064246 0.006399 0.015900 -0.045309 -0.043446 -0.037128 -0.039109 -0.003029 0.059840 -0.047674 -0.010090 -0.050144 -0.012762 0.029790 0.047076 0.041301 0.000035 -0.062629 -0.029299 -0.015874 0.032633 -0.007919 -0.010626 -0.023686 -0.013762 -0.025387 -0.038540 0.010335 0.020026 0.046017 0.008707 -0.018370 -0.055507 -0.042751 0.008851 -0.006415 -0.024656 -0.033302
model -0.032830 -0.038761 -0.013789 0.007277 -0.003460 0.007009 -0.050436 -0.005484 -0.064816 -0.011959 -0.016445 0.035188 0.022745 0.002853 -0.035016 0.008974 -0.028835 0.020458 -0.047830 -0.014530 -0.015235 -0.029305 -0.001049 0.059677 -0.034533 0.006157 0.003394 -0.031096 0.064530 0.043141 0.006473 -0.025639 -0.014988 -0.005257 -0.020306 0.015269 -0.009589 -0.020477 0.014710 0.019726 -0.027048 0.028877 -0.022656 -0.051979 0.037228 -0.047783 -0.026541 0.002563 -0.005419 -0.001131
repres -0.019154 -0.012807 -0.017391 0.006244 -0.023509 0.014801 -0.023062 -0.007182 -0.027443 -0.026345 -0.013392 0.016779 0.006697 -0.000602 -0.008968 0.002421 -0.008011 0.013258 -0.000277 0.011191 0.007200 -0.019427 0.021568 -0.009333 -0.020711 -0.018354 0.032583 -0.046070 0.019085 -0.004739 -0.014825 -0.059224 0.002529 -0.007676 -0.002718 0.025153 -0.007909 0.012383 -0.002843 -0.009019 -0.009613 0.028318 0.009684 -0.016527 0.034460 0.013258 -0.017234 -0.012708 0.021744 -0.000710
data 0.022322 -0.045082 0.026966 -0.009363 -0.008519 0.032732 -0.007620 -0.008554 -0.024847 0.027853 0.033539 -0.000147 -0.005209 0.028753 -0.000565 0.007315 -0.015959 0.001941 -0.015416 -0.012412 -0.033721 -0.002916 -0.011658 -0.006754 -0.030853 0.065899 0.067158 0.051524 0.034016 -0.078130 0.023417 0.026389 -0.030821 0.000180 0.020423 0.033178 0.030216 0.024639 -0.030459 -0.012762 0.019340 -0.001621 -0.019821 -0.013594 0.009184 -0.016164 0.049013 -0.001834 0.047577 0.033154
number 0.018599 -0.014012 -0.014425 -0.019658 0.002764 0.019536 0.021705 0.005966 -0.011798 -0.017448 0.001861 -0.024295 -0.006351 -0.009903 0.016749 -0.022726 0.007692 -0.002560 -0.009625 -0.024453 0.017828 -0.005938 0.003403 -0.035455 -0.004317 0.000194 -0.024904 -0.003570 -0.018010 0.005249 0.025434 0.038762 0.016197 -0.007890 -0.005102 -0.017098 -0.010257 -0.024228 -0.010865 -0.020470 0.019421 -0.007591 0.000952 0.029465 0.016044 0.030304 0.006991 0.030651 0.005475 -0.032945
statist 0.002305 -0.034806 0.026186 -0.022357 -0.042249 0.034121 0.028802 0.014490 -0.018952 0.012509 -0.000391 -0.003234 0.016326 0.067906 -0.006160 0.015931 0.010285 0.010375 -0.011174 -0.007788 -0.016542 0.003964 0.009847 0.003170 -0.009751 0.030747 0.049281 0.024760 -0.001702 -0.026980 0.064604 0.055685 -0.036701 0.016440 -0.009493 0.041546 0.024756 -0.001658 0.013528 -0.026633 -0.001742 -0.049441 -0.068619 -0.002114 0.048827 0.046648 0.058054 0.050816 0.053987 0.031358
size 0.000637 -0.007726 -0.011873 0.013653 -0.039412 0.012618 0.039765 0.025414 -0.004644 -0.033917 -0.006144 0.010483 0.001279 0.024645 0.015501 -0.019785 0.018218 -0.009908 0.025415 -0.014169 0.018820 0.033713 -0.000134 0.020971 -0.008846 0.011088 0.017483 -0.042612 -0.017628 0.027931 0.026121 0.060472 -0.015420 -0.005352 0.001954 -0.016125 0.012637 -0.013741 -0.000315 -0.009296 0.019038 0.008939 0.013586 0.027807 0.026074 0.001865 0.008796 0.062588 0.011721 0.000663
intersect 0.025976 0.022765 0.001448 -0.008756 -0.017885 -0.004874 0.042932 0.027991 0.007532 -0.035284 -0.023512 -0.000133 -0.012255 0.007097 0.019563 0.000255 0.045752 0.016639 0.008743 -0.034507 -0.002966 0.035758 0.014065 -0.008269 0.035706 0.005680 -0.004812 -0.055066 -0.024859 0.034623 0.026144 0.061432 0.003750 0.016657 -0.010182 -0.001003 0.023628 -0.025939 -0.004327 -0.003955 0.012388 -0.012054 -0.020903 0.050248 0.020655 0.006173 0.008799 0.064267 0.009827 -0.011249
method 0.002656 -0.015737 0.004458 -0.001020 0.003198 0.012055 -0.004914 -0.006021 0.005083 0.010914 0.019664 -0.017958 -0.022485 0.005195 -0.010455 -0.001830 0.005492 -0.014995 -0.013163 -0.041833 -0.036492 0.013339 0.003996 0.003369 -0.005071 -0.032598 0.001594 -0.009480 -0.006816 -0.021325 0.037814 0.020917 0.014958 0.008219 0.006265 0.005257 0.006526 0.018941 -0.005774 -0.012773 -0.013450 -0.002759 0.002864 0.007775 -0.008392 0.021154 -0.010007 0.017305 0.003870 0.015846
quorum -0.017466 -0.016306 0.001002 0.009651 0.018290 -0.008368 -0.025501 0.001174 0.010301 -0.015658 -0.007623 0.005999 0.020593 -0.005464 -0.026039 -0.013240 -0.025343 -0.006930 0.000840 0.000318 -0.004378 -0.019059 -0.007325 0.015736 -0.018281 0.006945 0.001749 0.001121 0.010854 -0.016864 0.003474 0.005173 -0.003984 -0.000382 0.011411 0.023496 -0.005589 0.018427 0.013364 -0.018605 -0.010093 -0.010795 -0.007396 -0.019823 0.007651 -0.002558 -0.008495 0.005474 0.002512 0.009726
requir 0.008257 -0.025975 0.031132 0.015050 -0.006267 -0.035952 -0.019068 0.036080 -0.017467 -0.001870 -0.014611 0.017938 0.018866 -0.002158 0.004946 0.003318 -0.015964 -0.019322 -0.003847 -0.003448 0.018480 0.009906 -0.015213 0.033807 -0.015203 0.020882 -0.022630 0.017146 -0.011653 0.019689 0.019439 -0.011340 -0.018011 0.000293 -0.000919 -0.032698 0.003202 0.010876 -0.014512 0.001177 -0.002707 0.002943 -0.013195 -0.034753 0.018469 0.037696 -0.006206 -0.011105 -0.006190 -0.000861
time 0.014059 -0.005865 0.005249 -0.001453 0.025466 -0.012290 -0.014823 0.008033 -0.026198 -0.018182 -0.001752 0.017043 0.004376 -0.035427 0.012021 -0.019766 -0.023452 -0.002868 -0.017757 0.002865 0.006026 0.010467 0.014275 0.007416 -0.003096 0.011567 -0.024472 -0.003733 -0.021086 0.001505 0.005795 -0.026662 0.009783 -0.011874 0.026091 -0.022776 -0.009038 0.008650 -0.019314 -0.002450 0.005794 0.003980 0.006930 0.008952 -0.000963 0.007816 -0.013464 -0.002109 -0.020145 -0.006096
updat -0.005646 0.026660 -0.017602 0.012817 -0.004597 -0.008030 -0.006240 -0.008104 0.025050 -0.025396 -0.023276 -0.006614 0.033968 -0.013113 -0.005674 -0.020374 -0.020407 0.024267 0.016634 -0.007941 -0.012265 -0.013304 0.019950 0.015092 -0.010945 -0.023412 0.011780 0.022583 -0.003288 -0.000808 -0.022392 -0.023764 0.021249 -0.001675 0.008308 -0.009114 0.007200 -0.008619 0.009923 -0.011423 -0.000369 0.006550 -0.007791 -0.010887 -0.025751 0.013281 0.012797 -0.003694 -0.005184 0.009505
assum 0.001328 0.000888 -0.008225 -0.025758 -0.014229 0.006897 0.008497 0.013169 -0.020066 -0.009921 -0.020105 -0.016722 -0.014540 -0.009346 0.032498 -0.007704 -0.005167 -0.003745 0.022201 -0.000261 0.018610 0.012410 0.007194 -0.006528 -0.002739 0.019111 0.020475 0.008642 -0.000415 0.002243 -0.005865 0.023768 0.015239 0.016567 0.020136 -0.003517 -0.009280 0.000370 -0.022571 -0.039512 0.004362 -0.012755 -0.001928 -0.005890 0.026948 0.019345 -0.003605 0.004414 0.003842 -0.024895
databas -0.005208 -0.016871 -0.013920 -0.008053 -0.019727 0.024538 0.025411 0.006344 -0.009702 0.018459 -0.018491 0.003628 0.011365 0.023931 -0.004012 0.006541 -0.002251 0.005678 0.007290 0.012520 -0.001808 -0.007169 -0.006381 -0.000611 -0.035233 0.044092 0.050553 0.034722 0.020741 -0.050688 0.035872 0.033445 -0.037020 0.016589 0.014804 0.043821 0.044933 0.033575 -0.029508 -0.007050 0.015793 -0.050385 -0.043718 0.013150 0.014397 0.013667 0.034339 0.007225 0.032138 0.026569
frequenc 0.005957 0.000712 -0.034718 -0.030562 -0.022131 0.012450 0.044041 0.007030 -0.024866 -0.003500 0.028335 -0.001454 0.032162 0.016508 -0.006678 0.032293 0.010780 -0.000030 -0.014950 0.001531 0.000026 -0.048047 -0.020772 -0.025574 0.002161 0.034114 0.007769 -0.005387 0.016850 -0.025891 0.000271 0.028342 0.000319 -0.007523 -0.002945 -0.008561 -0.011518 -0.023486 0.029351 -0.001934 0.022852 -0.021972 -0.034216 -0.009082 0.017239 0.018247 0.046262 -0.009976 0.021678 -0.028751
valu 0.005309 -0.013077 -0.006952 -0.027574 -0.020707 -0.011072 0.006470 0.013709 -0.038262 0.009066 -0.000903 -0.002263 0.020592 -0.008907 0.015636 0.028193 -0.010763 -0.024668 -0.010107 0.004667 0.030043 -0.032784 -0.016545 -0.013764 0.006530 0.035566 -0.008853 0.039685 -0.000048 0.004749 -0.000988 0.001955 0.021318 0.026853 0.007946 -0.022528 -0.033913 -0.011051 0.018544 0.011905 0.003050 -0.008554 -0.023098 -0.024980 -0.001295 0.003223 0.006239 -0.031003 0.000001 0.001299
place -0.005872 0.003179 0.007636 -0.013778 -0.000133 -0.003025 -0.045907 -0.023147 -0.007743 0.004130 0.004593 0.008983 -0.000289 0.020375 0.005249 0.020906 -0.009861 -0.004106 0.004275 0.040751 0.009737 0.033502 0.003672 -0.017163 0.006408 -0.011236 0.012134 -0.027076 0.012926 0.006795 -0.018290 -0.020193 -0.009936 -0.012470 0.004841 -0.008843 0.031085 0.002019 0.016419 0.014761 -0.021803 0.031281 -0.003502 -0.017419 0.037065 0.013921 -0.032586 -0.036197 0.011724 0.008409
system -0.002902 -0.019321 0.006273 0.005304 -0.007184 -0.000866 -0.017425 0.005876 0.001758 -0.018300 0.001801 0.011669 0.017804 -0.009375 0.012065 -0.010339 -0.006049 0.003813 0.000386 -0.014699 0.009736 -0.001306 -0.013799 0.009201 -0.001381 -0.000732 -0.012955 -0.011255 0.012112 0.024175 0.014034 0.010740 0.006257 0.011470 0.013135 0.018486 -0.036357 0.003550 -0.006785 0.001376 -0.006507 0.000037 0.000458 -0.021799 0.003279 -0.007343 -0.007869 -0.003071 -0.012324 -0.012978
spn -0.005769 0.004472 0.002621 0.005436 -0.009234 0.022151 0.001205 -0.032750 -0.023103 0.026828 -0.021045 0.021333 -0.012046 -0.011452 -0.003136 0.025949 -0.000725 -0.002485 -0.047621 0.036271 -0.003154 -0.017093 -0.002299 0.000544 -0.013592 0.007196 -0.034145 -0.003190 0.020890 0.013571 -0.006754 -0.033415 -0.022172 0.000127 -0.010729 0.011442 0.021370 -0.018076 0.003257 0.047653 -0.002288 0.005307 -0.015016 -0.029823 0.015012 -0.051982 -0.019669 -0.025582 -0.003980 0.037464
wit -0.012102 0.023431 0.005858 0.008964 -0.010473 -0.006899 0.016859 -0.000503 0.030638 -0.027198 -0.018818 -0.016618 0.006544 -0.011614 -0.002188 -0.024721 -0.007473 0.019036 0.021173 -0.007820 -0.018159 -0.013709 0.010866 0.008635 0.020466 -0.026838 0.006245 -0.003650 -0.023103 -0.010983 -0.013887 -0.003194 0.023651 -0.000618 -0.007185 0.004966 0.006037 0.001387 0.000909 -0.008906 0.012304 0.019212 -0.006309 0.001329 -0.020255 -0.003923 -0.000880 0.007392 0.001675 -0.010888
analysi -0.014070 -0.001354 0.024540 0.009183 0.003648 0.008863 0.000729 -0.016574 0.002197 0.031998 -0.008072 0.010988 -0.000052 0.020226 -0.003307 0.013752 0.012196 0.013813 0.009675 -0.000251 -0.004669 -0.005115 0.016672 -0.010241 -0.003821 -0.024099 -0.000945 0.018946 -0.001853 -0.007973 0.005356 0.002880 -0.020069 -0.007923 -0.021860 0.010676 -0.002491 -0.000787 0.008177 0.003073 -0.030351 -0.029154 -0.020802 0.016239 -0.007142 0.007893 -0.006151 0.011719 0.009378 0.023537
copi -0.013910 0.034957 -0.011346 -0.004415 -0.006963 -0.016989 0.031035 0.008965 0.029277 -0.035304 -0.015892 -0.030967 -0.003198 -0.014907 0.006918 -0.032558 -0.030606 0.013966 0.017557 -0.002631 -0.020910 -0.026329 0.003944 0.008520 0.014206 -0.029496 0.015957 0.001939 -0.006758 -0.018389 -0.012610 -0.014229 0.032451 0.020257 0.025150 -0.003760 0.008487 0.006812 -0.005631 -0.009163 0.004559 0.030739 -0.002760 -0.006211 -0.036183 0.001532 -0.003594 -0.009299 -0.003144 -0.024254
estim -0.010857 -0.002439 0.001480 -0.009502 -0.008515 0.017773 0.021881 -0.000887 -0.008414 -0.001217 -0.000122 -0.005229 0.007508 0.024346 -0.008011 -0.000021 -0.010914 -0.004782 0.009204 -0.001267 0.000380 0.001002 -0.007782 -0.003876 -0.026441 0.015994 0.005172 -0.002259 -0.017815 -0.002899 0.037018 0.024107 -0.021020 -0.000948 -0.004562 -0.009032 0.013566 -0.006899 -0.004021 0.003899 0.016685 -0.013486 -0.009262 0.017618 0.025559 0.032744 0.016533 0.036440 0.000906 0.006084
section 0.044099 -0.016268 -0.012919 -0.011778 -0.033164 -0.000630 -0.031476 0.016631 0.038318 -0.009220 0.045420 -0.002121 -0.031273 -0.014440 0.000352 -0.019477 0.045065 0.003517 -0.006853 -0.062952 -0.045243 0.044623 -0.032182 0.017455 0.004604 -0.028935 -0.050466 -0.055407 0.006419 -0.000085 0.037885 0.016531 0.028706 0.015046 -0.018303 0.050184 -0.026877 0.045031 -0.017233 0.000365 -0.040845 0.006344 -0.022261 0.030600 -0.054390 0.003221 -0.015542 0.046624 -0.002080 -0.017701
transit -0.004575 0.006941 -0.009592 -0.005643 -0.009731 -0.000045 -0.003023 -0.002224 -0.010541 -0.012915 -0.014200 0.019801 0.006421 -0.003773 -0.005619 0.004245 0.009026 0.010908 0.000811 -0.015138 -0.004667 0.005558 0.016256 -0.003730 0.013646 -0.001247 0.000239 -0.012825 -0.007295 0.004967 -0.006264 -0.017138 -0.006881 -0.010282 0.006816 0.005944 -0.006913 0.010289 0.009502 -0.005543 0.000143 -0.000108 0.019432 0.011723 -0.006100 0.002157 -0.007936 -0.001509 0.010096 0.010508
formula 0.021721 0.024881 -0.008464 -0.043343 -0.019201 0.026960 0.039180 0.021246 0.020859 -0.016056 -0.003158 -0.013688 0.000476 0.010441 0.017363 -0.030338 0.045285 0.023666 0.003474 -0.013938 -0.010007 0.012706 0.001640 -0.030504 0.039210 -0.015412 -0.016785 -0.043614 -0.036414 0.030047 0.030979 0.076754 -0.015163 0.010331 -0.028692 0.025922 0.026665 -0.025433 -0.020861 -0.048547 0.033831 -0.019523 -0.018618 0.066603 0.045180 -0.009199 0.022589 0.061120 0.008691 -0.001695
min 0.041439 0.071016 -0.044790 -0.056355 0.022064 -0.053038 -0.033900 -0.024899 0.017443 0.023499 -0.005936 -0.067367 0.037518 0.056124 0.033281 0.036848 0.034336 -0.042461 -0.009486 -0.018194 -0.030778 0.064523 -0.036734 0.015947 0.074064 -0.014235 -0.035146 -0.020872 0.027843 -0.018327 0.003527 0.059732 -0.000791 -0.033938 -0.005257 0.005865 0.016056 0.023015 -0.036439 -0.028370 -0.010970 -0.010719 0.021902 0.028568 -0.069860 0.021519 -0.008868 0.036679 -0.036223 0.019028
vote -0.002065 -0.003813 0.001632 -0.006729 -0.006036 -0.003429 0.001695 0.007411 -0.006814 -0.027829 0.000107 0.001035 0.006129 -0.014283 0.005909 -0.008354 -0.021582 0.013601 -0.004510 -0.008942 -0.008194 0.000461 0.011250 0.001690 -0.005503 -0.010584 -0.014751 -0.020148 0.002687 0.008227 -0.001173 -0.033982 0.018452 0.017074 0.024884 0.009454 -0.024344 -0.005816 -0.011389 -0.001995 0.004348 0.029345 -0.000904 -0.023486 -0.001760 0.004338 -0.005183 -0.007893 -0.018344 -0.016684
count -0.007183 0.001333 0.009052 -0.016066 0.016806 0.006099 0.021389 -0.007328 0.024900 0.021968 0.021986 0.009338 -0.024339 -0.010851 0.004444 0.012549 -0.007707 0.028012 0.003919 0.005725 -0.011079 -0.024255 0.009457 0.006259 -0.000683 0.027210 -0.025691 -0.014922 0.003965 0.007315 -0.016083 -0.007236 -0.011342 0.000590 -0.009679 0.014666 0.001175 -0.001767 0.006737 -0.001711 0.014003 -0.001696 -0.000169 -0.022820 -0.002895 0.004156 0.021865 0.002009 0.022181 0.006850
inform 0.001191 0.006913 0.008113 0.022271 -0.003271 0.027314 0.002519 -0.031864 0.005340 0.025324 0.012813 0.001189 -0.003668 0.032456 -0.036922 0.033093 0.020130 0.005843 -0.003170 -0.003430 0.017866 -0.020367 0.024468 -0.029851 -0.036227 -0.018420 -0.016698 0.019007 -0.026459 -0.001607 0.001824 -0.016758 0.016812 -0.020380 -0.057611 0.007068 0.008282 -0.028797 0.034777 -0.025387 -0.008621 0.010911 -0.012988 0.000248 -0.012869 0.027224 -0.003125 0.029211 0.001401 -0.021746
univers 0.001179 -0.009528 0.007199 -0.023093 -0.024226 0.015004 -0.002450 0.003354 -0.011289 0.010676 0.006666 0.007152 -0.007146 0.008452 0.009340 0.003514 -0.000633 -0.000794 -0.006385 -0.011703 -0.018982 -0.007407 -0.001124 -0.001750 -0.008960 0.017172 0.041807 0.027780 -0.003811 -0.017319 -0.009120 0.016467 -0.010682 0.013160 0.019059 0.012311 0.002930 0.006596 -0.006694 -0.010829 -0.002529 0.009283 0.014262 0.008790 0.006782 0.009362 0.009972 -0.003986 -0.002862 0.009753
figur 0.021306 -0.002851 0.019551 0.020431 0.007782 0.027422 0.014459 0.008215 0.024222 0.021973 -0.022258 0.037396 -0.021204 -0.019756 0.047015 0.048783 0.055099 0.011937 -0.034013 -0.027126 -0.033722 0.001654 0.023001 -0.010797 -0.005848 -0.029210 -0.053206 -0.010104 -0.015072 -0.018871 -0.001268 -0.015862 -0.015992 0.002799 -0.009867 0.032629 -0.005990 0.015401 0.009035 0.001968 0.013585 -0.036538 0.010385 -0.005720 0.011082 -0.049518 0.008746 -0.008787 -0.037003 0.020151
case 0.003995 0.006508 -0.007001 -0.017061 -0.001739 -0.015485 -0.006801 0.007066 -0.000429 -0.002136 -0.000415 0.001400 0.005819 -0.002627 0.001243 -0.016614 -0.005622 0.010341 -0.009628 -0.002407 -0.000044 -0.000643 -0.008985 0.012035 0.012825 -0.006761 -0.016962 0.003661 -0.004807 0.020885 0.004163 0.004479 0.000590 -0.016819 0.007417 0.006829 -0.003178 0.012085 -0.008170 0.006006 0.006761 0.000395 0.028917 -0.003101 -0.002825 -0.013426 -0.017627 -0.005378 -0.021233 -0.011359
correl 0.002911 0.004666 0.006301 0.021913 0.017418 -0.010792 -0.013640 -0.012006 -0.003737 0.000284 -0.000643 0.010285 -0.010992 -0.002061 -0.005887 0.008384 0.006238 0.002700 -0.008333 -0.000141 -0.013805 -0.000961 0.006715 0.005157 -0.011988 -0.002923 0.001603 -0.000747 0.009213 -0.007830 -0.018509 0.004630 -0.013444 0.013812 -0.009486 0.000070 -0.014923 0.007345 0.000247 0.023336 -0.015167 0.012619 -0.000561 -0.028571 -0.008189 0.016098 0.000951 -0.020489 -0.000821 0.012614
file 0.010624 -0.013790 0.016423 0.005991 -0.001383 -0.008278 -0.011348 0.004548 0.015087 -0.011962 0.021521 -0.008372 0.013019 0.007914 -0.005391 -0.002587 -0.001748 -0.004809 0.008606 -0.000140 -0.000972 0.011892 0.003225 0.010777 0.013073 0.005406 -0.010430 -0.017328 0.009238 0.001486 -0.015930 0.006939 -0.000811 0.016897 0.011374 0.017061 -0.012898 -0.004400 0.000330 -0.011601 0.011476 -0.003742 -0.005360 -0.016859 -0.005309 -0.006338 -0.009432 -0.004590 -0.018627 -0.007659
form 0.003344 -0.024026 -0.009076 -0.029578 0.003753 -0.014248 -0.041209 -0.016569 -0.031134 -0.022926 0.030865 -0.017244 0.004821 -0.005890 -0.009183 0.005359 -0.006453 -0.009231 0.004021 -0.006414 0.029895 -0.018574 -0.050702 -0.004405 0.021563 0.011042 -0.048225 0.008955 0.012616 -0.007929 0.001481 -0.015582 -0.007671 -0.013468 0.018142 0.036657 0.021477 0.007149 -0.034141 0.001369 -0.026366 0.018932 -0.005562 -0.043345 0.008351 -0.045625 0.010342 0.030690 -0.045618 -0.010970
host 0.002379 -0.045845 0.022209 0.004350 0.009741 0.004033 0.005055 -0.001683 -0.018544 0.028871 0.003582 -0.013576 0.005181 -0.021585 -0.007306 -0.000366 0.017658 -0.032446 -0.030985 -0.020312 -0.026803 0.013482 0.018697 -0.006499 -0.007544 0.028837 -0.027605 0.036013 -0.026515 0.004838 0.042171 0.036906 -0.011666 0.007995 0.025062 -0.006479 -0.033463 -0.005283 0.010183 0.034958 0.030382 -0.018033 0.029893 0.011924 -0.044240 -0.037373 0.010479 0.007403 -0.018242 0.031657
tabl 0.000268 -0.008857 -0.002982 -0.007832 -0.000576 0.017015 0.002259 0.002671 -0.011821 -0.011092 -0.015387 0.010516 -0.001018 -0.015768 0.021417 0.017364 0.003144 -0.000418 -0.000367 0.003896 -0.014774 0.001499 0.007099 -0.016635 -0.007170 -0.012574 -0.011518 -0.011826 0.015071 0.004738 0.008608 -0.003177 0.003010 0.002240 0.003658 -0.007578 0.000502 0.009184 -0.003188 -0.011593 -0.001108 -0.002886 0.002862 -0.010510 0.000640 -0.002895 0.013520 -0.001741 -0.000788 -0.008780
union -0.013317 -0.002995 0.008361 0.026049 0.001905 0.033389 0.006478 -0.029628 0.015940 0.030079 0.007848 0.023623 -0.029480 0.017203 -0.054067 0.037327 0.026543 0.007868 0.004356 0.011121 0.028713 -0.034804 0.023336 -0.040951 -0.039896 -0.024720 -0.016082 0.019719 -0.018543 0.000616 0.016376 -0.026119 -0.004415 -0.035574 -0.059524 -0.003146 0.015695 -0.034088 0.047522 -0.017167 -0.015665 0.000782 -0.035098 0.000071 0.028207 0.012166 0.005037 0.003705 0.016153 -0.000367
defin -0.009137 -0.005470 0.011761 0.013289 0.012826 -0.001916 -0.010275 -0.002061 0.012136 -0.011946 -0.005151 -0.006801 -0.007452 -0.018453 0.002993 -0.009953 -0.006292 0.002152 0.009366 -0.006126 -0.017983 -0.017687 0.007433 -0.008140 0.012339 0.003795 -0.006351 -0.001085 -0.013678 0.003674 -0.009313 0.001715 0.016088 0.001435 0.004609 0.014012 -0.004292 0.024020 -0.015423 0.018949 -0.016732 -0.008383 -0.006454 -0.023002 0.014145 -0.013192 -0.004607 -0.022929 -0.005045 0.012279
express -0.004139 0.004406 -0.000379 0.017204 0.005398 0.000816 -0.007663 -0.008492 0.001322 0.024295 0.004103 -0.014818 -0.031825 -0.002500 -0.030913 0.020163 0.013167 -0.006392 0.006651 0.016144 0.013974 -0.007369 0.005581 0.005019 -0.010164 -0.027422 -0.010211 -0.003588 0.002188 -0.014309 0.011210 -0.026718 0.004353 -0.013548 -0.017582 0.004264 0.017935 -0.015094 0.023639 0.003569 -0.012872 -0.005001 -0.006280 -0.008510 -0.001354 0.004472 -0.006947 -0.013837 -0.004157 0.004147
includ 0.010938 -0.005219 -0.008402 0.001744 -0.008917 -0.004039 -0.000505 -0.001040 0.006620 -0.014526 -0.020450 -0.001684 -0.016527 0.000520 0.000273 -0.012336 0.000780 0.010095 -0.015800 0.008390 -0.015612 -0.008102 -0.012757 0.001476 -0.007985 0.003649 0.005155 -0.013816 0.004814 0.006446 0.005259 0.006878 -0.002424 0.008400 -0.002762 -0.001989 0.021873 0.006426 0.010488 0.008504 0.020213 -0.000675 0.002030 -0.017812 0.003130 0.010369 -0.003984 -0.010497 0.008525 -0.002995
item -0.006497 -0.010891 -0.001132 0.018620 0.001432 0.007308 0.004224 0.016946 -0.012956 0.018717 -0.004768 0.004807 -0.005279 -0.012247 -0.005186 0.015467 -0.012882 -0.007518 -0.006156 0.011297 -0.000966 -0.002890 -0.012113 0.012227 -0.009910 0.019773 0.014792 0.023652 0.014872 -0.014285 -0.019378 -0.009098 0.005286 0.014417 0.012406 -0.014423 -0.022643 0.000031 0.015598 0.001344 -0.004199 -0.004307 0.007539 -0.002755 0.004437 0.021669 0.003943 -0.033288 0.005912 -0.012666
level-upper-bound -0.073356 0.036922 0.021471 0.031647 0.015113 0.030016 0.009410 -0.080424 0.014964 0.033924 0.021183 0.045571 -0.022070 0.011745 -0.088161 0.029255 -0.055230 0.028081 0.001196 0.023693 0.045445 -0.069409 0.024506 -0.044451 -0.047010 0.044509 -0.007523 0.066785 -0.046667 -0.023670 0.012431 -0.046274 -0.053687 -0.031792 -0.051554 -0.017184 -0.011867 -0.025263 0.027808 0.015323 -0.006087 0.028017 -0.023409 0.000187 -0.036341 0.000380 -0.037963 -0.005186 -0.018755 0.036957
ss 0.038660 0.060487 -0.029103 -0.044728 0.014548 -0.034140 0.002511 -0.012020 0.015465 0.005130 -0.018088 -0.048844 0.014950 0.042011 0.025905 0.033328 0.038874 -0.019505 -0.001618 -0.020104 -0.023040 0.049418 -0.011588 -0.005764 0.063824 -0.011237 -0.039990 -0.026811 0.012519 -0.001443 0.020868 0.060557 -0.007311 -0.015287 -0.016713 -0.000998 0.028001 0.002631 -0.027462 -0.025422 -0.002661 -0.018095 0.002474 0.046320 -0.034205 0.019294 -0.003367 0.057627 -0.017995 0.006889
discuss 0.004553 -0.010370 0.011572 0.008497 -0.008955 -0.018759 -0.010542 0.006508 -0.003990 -0.002649 -0.008357 0.003528 0.006559 -0.008322 0.011079 -0.012801 0.005987 -0.003902 -0.006859 -0.003523 0.004708 0.000547 0.002998 0.019322 -0.002811 -0.007925 -0.018899 -0.004164 -0.003877 0.011952 0.009241 0.013969 -0.001734 0.009978 -0.011782 0.003174 0.003966 0.016668 -0.006550 0.006863 -0.002370 -0.003454 0.022497 -0.000192 -0.017708 0.003906 -0.012107 -0.000190 -0.024451 -0.008327
equival -0.007685 0.009776 -0.016913 0.007927 0.002125 -0.005885 0.004227 0.013311 0.000441 0.008017 -0.006984 -0.014253 -0.008190 -0.007270 -0.012524 0.003969 -0.012013 -0.005018 0.017355 0.005902 0.006956 -0.000233 -0.006636 -0.002448 -0.015655 -0.002666 -0.002024 -0.003006 -0.003265 -0.017204 0.009580 -0.010823 0.006767 -0.004182 -0.000005 -0.005972 -0.000421 -0.001041 0.000282 0.013943 -0.006659 -0.013350 -0.003548 0.015697 -0.007877 0.008534 0.001048 -0.012870 -0.010897 0.011580
fire -0.007859 0.004223 -0.013593 0.001729 -0.006610 -0.009031 -0.010692 0.003953 -0.012733 0.000525 0.010513 0.002011 0.002810 0.000243 0.001444 0.002259 0.007892 0.002812 0.010461 -0.012942 -0.003139 -0.001128 -0.001934 -0.005047 0.013677 -0.011325 0.013012 0.001481 0.000379 -0.002151 -0.001114 -0.003148 -0.010764 -0.012280 0.008939 -0.005083 0.002002 0.012701 0.005538 0.004796 -0.001203 0.007136 0.009416 0.010305 0.010006 -0.009575 -0.007147 -0.012968 0.010038 0.011758
gener 0.002947 -0.005614 -0.002670 0.014132 0.024397 -0.005058 -0.004310 0.011174 -0.018632 0.004664 0.006273 0.009941 0.016790 -0.015654 0.010368 -0.017013 -0.014377 -0.016434 0.007439 0.003765 0.003894 0.006951 0.018753 -0.009046 0.015470 0.002403 0.002093 -0.001457 -0.019937 -0.013790 -0.008302 -0.008846 0.003564 0.009835 0.026460 -0.030585 -0.004478 0.015403 -0.012534 -0.007994 0.008670 0.002742 0.004185 -0.010476 -0.015125 -0.001849 -0.005596 0.011987 -0.016037 0.005290
perform 0.015130 0.000019 0.003686 0.004296 -0.014678 -0.013853 0.010311 0.023380 0.016860 -0.013535 0.000807 0.009219 0.000239 -0.017831 0.015220 -0.021927 -0.013450 0.011517 0.007748 0.002816 -0.003873 -0.002557 -0.013360 -0.003932 0.012095 0.000518 0.000609 -0.010892 0.003755 0.015173 0.003442 0.002589 0.000261 0.006149 0.026644 0.000102 -0.024285 -0.007819 -0.012689 0.011141 -0.014943 0.007801 0.005479 0.000195 -0.003295 0.001221 -0.018466 -0.022488 -0.028430 0.007404
probabl -0.009574 -0.007423 -0.031373 -0.007031 0.002176 0.013739 -0.002157 -0.000026 -0.024939 0.018017 0.042514 -0.013146 -0.020053 0.012146 -0.003880 -0.022519 -0.019950 0.005737 0.021984 -0.000051 0.016543 -0.019973 -0.010706 -0.002128 0.012767 0.002944 0.004944 0.010447 -0.000915 -0.017449 -0.010975 0.003278 -0.014241 -0.021150 0.009307 -0.010231 0.010573 0.010201 -0.007501 0.003915 -0.004174 0.000388 -0.003502 0.015347 -0.014342 -0.021913 -0.007031 -0.002853 0.016912 0.008164
result -0.010582 0.007140 -0.000024 -0.007040 0.009103 -0.010980 -0.004865 0.015106 -0.002710 -0.001537 -0.005362 -0.009244 -0.002924 -0.006669 0.003708 0.010885 -0.000802 0.000670 0.006237 0.001392 -0.002984 0.003437 0.006191 0.000426 -0.004134 -0.018744 -0.005147 0.002723 0.013982 0.010780 -0.003119 0.005708 -0.004954 -0.007217 -0.005762 0.003864 0.007445 -0.004103 -0.001896 -0.016291 0.009632 0.000067 0.017531 0.008908 0.007753 -0.006502 -0.011875 -0.000980 0.005587 -0.006534
subset -0.014053 -0.001887 0.008044 0.003517 0.019986 -0.003260 0.008028 0.009047 -0.000310 0.006337 -0.019160 0.014662 0.000118 -0.016027 0.002175 -0.011780 0.002413 -0.008925 -0.007275 -0.002716 -0.017334 0.007355 -0.008447 0.001289 -0.016603 0.020969 -0.009300 -0.002399 -0.001965 0.000824 -0.000558 0.008704 -0.009038 0.021775 0.012408 -0.000431 -0.011360 0.005811 0.013287 -0.003903 -0.002954 0.004164 0.006231 0.012846 -0.000363 -0.014873 0.000952 -0.002239 0.001730 0.011513
avail 0.011848 0.012437 -0.012067 -0.007595 -0.019113 -0.005565 0.004128 0.018555 0.005949 0.008161 0.001552 0.012267 0.016729 -0.010375 0.002399 0.006738 -0.007822 -0.002590 -0.002628 0.008551 0.018087 0.009447 -0.015525 0.014953 0.000965 0.008003 0.005285 -0.005354 -0.006040 -0.005938 0.008784 -0.014225 0.016238 0.011379 -0.008752 0.001600 -0.006927 0.019132 -0.010375 -0.002864 -0.018214 -0.004539 -0.012787 0.009572 -0.017122 -0.001499 -0.001874 0.003115 -0.009052 0.000352
complement -0.021258 -0.002159 -0.006562 0.011258 -0.016551 0.019211 0.033444 0.004647 0.014895 -0.007374 0.010899 0.009222 -0.000397 0.001296 0.001085 -0.018975 -0.001232 -0.011758 0.021336 -0.001247 0.023711 0.015177 -0.003558 -0.011102 0.011659 0.008159 -0.002555 -0.019914 -0.000515 0.022237 0.011322 0.024828 -0.008728 -0.002859 0.003358 0.007154 -0.003225 -0.006753 -0.003730 -0.020543 0.009081 -0.018985 0.011685 0.007881 0.022759 0.007606 0.011014 0.030885 -0.005196 -0.009917
effect -0.004439 0.005432 -0.005300 0.006346 0.008679 -0.000770 -0.004281 0.002823 0.011650 -0.014496 -0.024148 0.018501 0.006880 -0.013381 0.001113 -0.008537 -0.020633 -0.003274 -0.003163 0.011848 -0.002686 0.005696 -0.016274 0.005667 -0.007832 0.004337 -0.000197 -0.016964 0.003051 0.008593 -0.010910 -0.015859 0.004543 -0.017324 0.008553 -0.007600 -0.011913 0.005704 0.006721 0.017576 -0.004516 0.024622 0.001430 0.016769 -0.007144 0.001468 -0.009360 -0.012880 -0.023356 0.002048
function 0.012412 0.009695 -0.006103 -0.000480 0.005850 -0.014903 -0.011168 0.001452 -0.017951 -0.011332 -0.006256 0.009575 0.007923 0.001541 0.008525 0.012676 -0.012710 0.004138 -0.007989 0.010233 -0.006362 0.015595 0.003962 -0.011779 0.007049 0.006295 -0.011606 -0.000952 -0.000576 -0.001486 -0.003012 -0.007544 0.003833 -0.016458 -0.009350 -0.000840 0.003161 -0.005846 0.011363 0.006641 0.014931 -0.018989 0.007113 -0.011745 0.007094 -0.000037 0.005452 0.006766 0.013522 -0.007451
rang -0.000222 0.009878 0.006467 0.001594 -0.003188 -0.006629 -0.002467 -0.002659 -0.003640 0.013350 0.007169 0.010354 0.011640 -0.026665 0.012758 0.012117 -0.009707 -0.009498 -0.014712 0.006802 0.008753 0.000149 -0.015189 -0.006235 0.001519 0.022076 -0.005032 0.012365 -0.007512 -0.011194 -0.014216 -0.009240 0.010133 0.019261 0.011862 -0.018402 -0.021326 0.008321 0.021134 0.002787 0.005309 0.003449 0.003871 -0.011205 -0.004438 0.013655 -0.010064 -0.026240 -0.020368 0.002742
stochast-petri-net -0.010733 -0.023501 -0.017323 0.012271 0.000619 0.009958 -0.035352 -0.002095 -0.037556 -0.011625 -0.017004 0.017321 0.006858 0.002524 -0.034601 0.001804 -0.006954 0.018408 -0.018889 -0.019759 -0.013189 -0.014928 0.001103 0.034250 -0.014429 0.007014 0.008260 -0.010768 0.047276 0.033249 0.014503 -0.003197 -0.007493 0.000909 -0.008858 0.012485 -0.012200 -0.002330 0.008840 0.013529 -0.034371 0.013218 -0.000137 -0.032996 0.019310 -0.008778 -0.010437 -0.000321 0.007009 -0.015391
sum -0.000830 -0.008286 0.001704 -0.017526 -0.006559 -0.004264 -0.006028 0.002490 0.003787 0.001507 -0.013099 -0.006317 0.018052 -0.015086 -0.001828 0.004106 -0.026356 -0.006165 -0.006397 0.007976 0.008943 -0.006795 0.006597 0.000089 -0.014679 0.005180 0.007091 0.026893 0.004110 -0.004350 0.002884 -0.008098 0.007430 0.002901 0.021380 -0.016896 -0.007934 -0.000499 0.009507 0.010650 0.004410 0.011445 -0.001080 -0.015360 -0.015618 -0.016260 -0.011712 -0.023756 0.000800 0.015775
token 0.004839 0.010720 -0.002796 -0.025546 -0.002686 0.003262 -0.031083 -0.015840 -0.001696 0.005109 0.004744 0.002069 -0.010143 0.015744 0.016044 0.008330 -0.003642 -0.003385 0.006951 0.034297 -0.001543 0.027224 -0.000628 -0.010879 0.015684 -0.008824 0.006918 -0.019856 0.005813 0.008500 -0.022393 -0.008635 -0.005555 -0.012092 0.010075 -0.003562 0.030072 -0.001110 0.013680 0.009249 -0.023962 0.031262 -0.003677 -0.012997 0.021905 0.010158 -0.018815 -0.027742 0.011180 -0.008366
work -0.001051 -0.009864 0.018178 0.003511 -0.004323 0.005130 -0.012051 -0.002169 -0.003670 -0.009999 -0.007055 0.004083 -0.013300 0.006000 -0.001291 -0.015536 0.006555 -0.008472 0.006820 -0.006481 -0.004928 -0.009433 0.007372 0.014591 -0.005116 0.004166 0.016917 0.004327 0.020340 -0.007997 0.001061 0.002040 -0.000415 -0.001739 -0.004020 -0.001906 0.010654 0.016293 -0.002417 -0.000575 -0.009589 -0.004778 0.000224 0.003636 0.019330 0.019287 0.010398 -0.003442 0.019244 0.026225
consist 0.006256 -0.000384 0.010562 -0.002927 0.005742 -0.012759 0.004742 0.010745 0.019275 -0.025298 0.007128 -0.021748 -0.004535 -0.013385 -0.018949 -0.015716 -0.024477 -0.020927 0.010347 0.011887 -0.011229 -0.001551 -0.001410 0.005974 0.008642 -0.007263 -0.011696 0.001359 -0.004992 -0.019991 -0.013621 -0.004750 -0.002428 0.007736 0.015764 -0.007733 -0.005006 0.004310 0.009311 -0.021455 0.013256 -0.001328 0.010791 -0.007961 -0.023517 -0.012081 -0.010968 -0.007921 -0.017033 -0.000024
frequenc-distribut -0.013135 0.020513 0.007956 -0.019897 -0.017796 0.018420 0.025298 -0.007564 -0.002057 0.012631 0.018810 0.007651 -0.008260 0.005397 -0.014288 0.005356 0.002982 0.004992 -0.002248 -0.012231 -0.015247 -0.000492 0.011965 -0.000590 0.017050 0.017227 0.007040 -0.000215 0.010026 0.013570 -0.006321 0.009911 -0.011098 -0.005726 -0.022551 0.010247 0.002811 -0.013245 0.004117 0.005058 -0.016128 -0.019479 -0.017373 -0.002952 -0.006601 0.015532 0.022241 -0.007757 0.002052 -0.007341
lower -0.007821 0.016386 -0.000428 -0.015663 0.002258 0.008174 -0.000471 -0.013759 0.012158 0.010815 0.026887 -0.002514 0.005225 0.009100 -0.013010 0.008155 -0.017623 0.003304 0.001547 -0.002239 0.014442 -0.023084 -0.001823 -0.015904 -0.019558 0.010553 0.006976 0.027188 -0.003228 -0.003720 0.001182 -0.007781 -0.008668 -0.020421 -0.004830 -0.000947 0.018388 -0.014235 0.016791 -0.008255 0.011441 0.008764 -0.002039 0.023614 -0.012650 0.017085 -0.018870 0.006288 -0.003373 0.015024
minimum 0.008863 -0.009112 -0.011030 -0.003525 -0.017463 0.012882 0.018732 0.013828 -0.004179 -0.018782 -0.000345 -0.010101 0.000067 0.010767 0.001624 -0.002990 0.004510 0.014183 0.008702 0.001235 -0.006796 -0.021108 -0.001866 -0.017273 -0.000270 0.003083 0.007086 -0.015713 0.004078 -0.006182 -0.002542 0.009362 -0.006032 -0.003249 -0.010074 -0.013654 -0.008961 -0.013801 0.005948 -0.002505 0.025305 -0.009066 -0.008377 0.012481 0.018377 -0.002424 0.004156 -0.000862 0.011287 -0.012376
need 0.000085 0.004254 -0.011340 -0.016300 0.002111 -0.013667 -0.012485 -0.005588 0.003888 0.001681 0.004695 -0.007054 0.025445 -0.014783 0.016976 -0.014635 0.004594 0.014534 0.000995 0.003149 -0.009292 -0.002069 -0.007690 -0.003769 0.010827 -0.006961 0.009720 0.001443 -0.006639 0.006756 -0.004773 0.012500 0.014734 0.018048 0.009441 0.000401 -0.007488 -0.011146 -0.014497 -0.000766 -0.001376 -0.006961 0.007440 -0.012282 -0.002374 -0.022471 -0.002554 0.007645 0.005125 0.002978
quorum-gather 0.009065 0.009895 0.005020 -0.009359 0.005468 0.024556 0.002450 -0.005536 -0.003953 0.001308 -0.004561 0.008719 -0.015595 -0.008262 -0.001851 0.010875 0.006476 0.005600 -0.017108 0.015058 0.001228 0.002702 0.005523 -0.001434 0.005196 -0.004659 -0.012269 0.003389 -0.002470 0.009292 -0.008408 0.001714 -0.017783 0.011977 -0.004113 0.002277 -0.008944 -0.014974 -0.006961 0.016158 0.000700 0.007491 0.001591 -0.010220 -0.006176 0.007369 -0.008119 -0.005755 -0.000565 0.007484
simpl 0.019508 0.009468 0.012036 0.001113 -0.002306 0.009027 0.009608 0.005373 0.015204 -0.001306 0.006842 -0.004127 -0.003083 -0.005032 -0.013181 -0.015649 0.015525 0.012055 0.017413 -0.014608 -0.002903 0.008879 -0.007945 -0.009031 0.017811 0.000404 -0.011579 -0.012159 -0.001092 0.006596 -0.000472 0.003463 -0.009198 0.014698 -0.014158 -0.003847 -0.002851 -0.006805 -0.000104 -0.014489 0.006763 0.006565 0.002457 0.020911 -0.012268 -0.007191 0.000235 0.004184 0.002393 0.001652
suppos 0.017848 0.007093 -0.005373 0.002794 -0.009308 0.001185 -0.006994 0.001878 0.014196 -0.006867 0.011125 0.004005 0.001548 0.006496 -0.002112 0.019859 0.014753 0.003259 0.013669 0.004516 -0.018747 0.012278 -0.006876 0.019497 0.028225 -0.012338 0.001219 -0.002236 0.003786 0.015157 -0.004215 -0.010773 -0.001066 -0.018727 -0.002771 0.008100 -0.007906 -0.004750 -0.003053 -0.001741 0.000775 0.002020 0.010626 -0.006874 0.001433 -0.022000 -0.004188 -0.003632 0.004049 -0.017827
term -0.009350 0.013396 -0.008504 0.041787 0.002391 -0.003514 -0.008156 -0.007833 0.023679 0.030344 0.015271 -0.025268 -0.035801 0.014819 -0.045018 0.018771 0.003013 0.014253 0.005493 0.036719 -0.002934 -0.000272 0.016950 -0.015168 -0.017175 -0.013364 0.017353 0.014486 0.006430 -0.011034 0.026912 -0.028956 0.003544 -0.013035 -0.015271 0.025048 0.019947 -0.031088 0.025259 0.003081 0.010270 -0.027281 -0.020126 -0.000088 0.003240 0.015593 -0.009561 -0.019246 0.001953 0.003613
bit -0.003948 -0.008314 0.018640 0.009751 0.009467 0.002397 -0.022466 0.008799 0.006695 -0.006876 -0.012937 0.014987 0.020022 -0.004214 -0.000826 -0.004116 -0.012108 -0.016599 -0.007266 -0.003601 -0.008812 0.017356 -0.000589 0.010700 0.012730 0.012120 0.005569 0.019319 0.014835 0.008905 0.000384 -0.010528 0.016056 0.000832 0.014942 -0.019047 -0.029518 0.006245 -0.007968 0.010951 0.002024 -0.000673 0.006595 -0.035210 -0.024344 0.010071 0.008091 -0.007113 0.014634 -0.000720
call 0.015558 0.011589 -0.003323 -0.003290 -0.004693 0.002692 0.040297 0.008647 -0.000507 0.003375 0.028693 0.007236 0.013693 -0.015877 0.011110 -0.028137 0.038333 0.016019 -0.027703 -0.025533 -0.013777 0.011967 0.006188 -0.026364 0.008238 -0.007641 0.012022 -0.029726 -0.008542 0.023971 -0.004303 0.019734 -0.018412 0.029012 -0.011023 0.007249 -0.015046 -0.033519 0.009131 0.027555 0.030649 -0.016485 -0.028092 0.029564 0.032348 -0.019359 0.030148 -0.001176 0.004000 -0.007528
instanc -0.002796 0.011175 -0.011016 0.017191 0.020422 0.011353 -0.009207 -0.005577 -0.012384 -0.004661 -0.004916 0.007261 -0.003216 0.001437 -0.004130 -0.012334 -0.010614 -0.010948 0.010419 0.004608 0.011806 0.007695 -0.001178 0.008190 -0.003279 -0.000249 -0.002821 -0.011008 -0.004237 0.004983 0.006266 0.007066 0.004052 0.000395 -0.005848 -0.021275 0.011687 0.012046 -0.003728 0.010426 0.015609 0.008603 0.008216 -0.017043 -0.003539 0.006075 -0.022199 -0.005149 -0.002083 0.013663
obtain 0.005092 -0.010272 -0.004690 0.006414 0.002714 -0.001072 -0.005553 0.006665 -0.016423 -0.002152 -0.024312 -0.008402 0.008360 0.008706 0.009953 0.011712 0.001549 -0.001960 0.013053 0.014797 -0.001868 -0.010190 0.007830 -0.000831 -0.005761 0.012209 0.004516 0.002185 0.014654 0.006563 -0.003888 0.011648 0.012721 -0.020389 -0.004937 -0.011871 -0.001477 0.017201 0.017385 -0.013761 0.006558 -0.010401 -0.006106 -0.018088 -0.003246 -0.000562 -0.001867 0.013881 -0.012697 0.015193
occur 0.006468 -0.003117 0.026843 0.013950 0.002494 0.007235 0.018316 0.003665 0.004840 -0.006181 -0.024633 0.004548 -0.024502 -0.028127 0.006942 -0.004884 -0.002399 0.005473 0.012323 -0.005208 0.015575 -0.003780 -0.013128 0.012980 -0.000841 0.022597 -0.005651 0.016836 -0.001874 -0.012928 -0.009516 0.000619 -0.004250 -0.002366 0.003756 0.001663 0.014498 0.016797 0.004527 0.009431 0.015299 -0.010977 0.014235 0.007086 -0.006371 -0.002785 0.010603 -0.021587 0.003076 -0.007612
partit 0.004025 0.008472 -0.000442 -0.010568 -0.014022 0.003100 0.014711 -0.007977 0.011724 0.018133 0.010166 -0.013450 -0.027246 -0.000652 0.016477 0.015690 0.008005 0.014149 0.011161 -0.001559 -0.002863 -0.003640 0.011675 0.012199 0.006267 0.008978 -0.018143 -0.023204 -0.008988 0.013105 -0.006177 0.017915 0.001209 0.001897 -0.003786 0.015780 0.003635 -0.004699 -0.007927 -0.018447 0.004449 -0.008984 -0.001101 -0.009197 0.013635 0.014104 0.006748 0.010457 0.015805 -0.013353
possibl 0.003040 0.005715 0.002985 0.010074 0.008376 0.006046 -0.004287 -0.002709 0.004326 0.004287 0.009296 0.007114 -0.000752 -0.010593 -0.006149 -0.020490 0.013572 0.014298 0.003574 -0.006314 0.001115 0.006645 0.002281 0.005514 0.008779 -0.005216 -0.020533 -0.020664 -0.007076 0.011778 -0.021904 -0.008570 0.007185 0.009019 -0.009439 -0.007130 0.003811 -0.008017 -0.019118 0.005403 -0.002217 0.008655 0.010959 -0.001268 -0.008295 -0.022171 -0.002965 -0.003855 -0.008978 0.001501
process 0.006309 0.006837 -0.010164 -0.000754 0.011327 0.012480 0.003889 0.003486 -0.002510 -0.004468 0.012822 -0.004808 -0.008190 0.003547 -0.010760 0.004014 -0.008416 -0.006258 -0.010155 0.004393 -0.007021 0.002409 0.010635 0.004896 0.016533 0.001487 0.011291 0.005939 -0.004714 -0.008813 -0.005114 -0.009872 -0.010585 0.004911 0.017255 -0.003387 0.001712 -0.000730 -0.001817 -0.014779 -0.001938 -0.002707 0.009136 -0.004888 -0.013705 -0.001737 -0.015079 -0.007558 -0.002061 -0.000198
relat -0.002395 -0.002811 -0.034922 -0.001596 -0.002910 -0.010453 0.003753 0.012587 0.013769 0.004083 -0.009666 0.014135 0.007130 0.006946 0.004438 -0.000770 -0.017636 0.000509 0.007474 0.008217 0.018157 -0.005746 -0.006450 0.017821 -0.026726 0.007091 0.010841 0.004554 0.008744 -0.021836 0.002814 -0.007132 -0.003740 0.010339 -0.008248 0.028239 0.030225 0.020728 -0.018262 0.005897 0.004518 -0.024913 0.000149 0.012540 -0.000235 -0.001876 0.007073 -0.006311 0.009970 0.015034
request -0.005601 0.015007 0.003022 -0.009584 0.012428 -0.006304 -0.010726 -0.003894 -0.005322 -0.005491 -0.009699 -0.003217 -0.000835 0.005197 0.009968 -0.016023 -0.019700 0.013064 0.004943 -0.003928 -0.002064 0.018307 0.002968 0.017348 -0.000263 -0.002310 -0.009836 -0.002629 -0.004967 -0.006028 0.013236 0.001995 0.005054 0.001691 0.012041 -0.007423 0.002709 -0.002881 0.001083 -0.017057 -0.002033 -0.009031 -0.010297 0.011929 -0.020863 -0.001124 0.004620 0.004673 -0.005168 -0.016389
set-size -0.004816 -0.003964 -0.007943 0.001099 0.008210 0.005311 -0.001384 0.005930 -0.000884 0.003628 0.011203 0.018200 -0.001654 0.008132 0.001886 -0.012337 -0.010186 -0.008434 -0.015766 -0.007438 0.003878 -0.005734 -0.017424 0.015917 -0.010841 0.010315 -0.007900 -0.013705 -0.001719 -0.003128 0.010977 0.008736 0.002555 0.015707 0.011718 -0.006719 0.000702 -0.011951 0.000100 -0.002409 0.004746 0.002965 0.008833 -0.006767 -0.008696 -0.002660 -0.002180 -0.009957 0.007185 0.006236
space 0.004914 0.006659 0.013966 0.020637 0.011774 0.002019 0.000934 -0.010423 0.015670 -0.003293 -0.001442 0.010365 0.008257 0.004229 -0.021378 0.021371 0.013870 -0.010509 0.003063 -0.001177 -0.000648 -0.006463 0.007968 -0.014057 -0.009587 -0.025571 -0.007334 0.007331 -0.005908 0.002204 0.010228 -0.014523 0.013744 -0.008995 -0.017469 0.000734 0.005042 0.011140 0.020569 -0.000035 -0.015051 0.014102 -0.004588 -0.002989 0.000331 0.011647 0.003854 0.019746 -0.007921 -0.012761
state -0.005564 -0.005479 -0.004385 -0.010135 -0.003502 -0.003746 0.003662 -0.001763 0.012590 -0.010948 0.001853 -0.016982 0.000381 -0.008322 -0.000407 -0.002022 0.005711 0.002786 0.014798 -0.009561 0.018866 -0.014676 -0.012794 -0.006879 0.008072 0.009124 0.006025 0.004125 -0.001786 0.011023 -0.011843 -0.008416 0.012289 -0.001598 -0.004003 -0.008761 -0.003143 0.001971 -0.009636 -0.009439 0.008074 0.012204 -0.002681 0.015148 0.007952 0.000042 -0.019832 0.000467 0.008965 -0.003960
storag 0.010514 -0.006404 0.017410 0.012856 0.016768 -0.011874 0.001959 0.010451 0.009107 -0.007216 -0.012582 0.011058 0.008094 0.000479 -0.000107 -0.002850 -0.009978 -0.003902 -0.002494 -0.003143 0.014185 -0.001472 -0.013630 0.011583 0.001655 -0.002144 -0.013801 0.001252 0.008586 -0.001694 -0.000425 -0.006272 -0.008022 0.006288 0.010954 -0.027098 0.001433 0.002326 -0.015314 0.012638 -0.007625 0.017130 0.008013 -0.002636 -0.005525 0.023207 0.002993 0.016336 0.008960 -0.009157
age 0.009199 0.007772 0.006738 -0.006657 -0.023614 0.011112 -0.010383 -0.000854 0.007064 -0.017447 0.011918 0.019390 0.019394 0.018879 0.015234 0.002233 -0.006652 -0.010192 -0.014465 0.002960 -0.019986 0.007214 -0.000363 0.001225 -0.003768 0.010326 0.004993 0.012783 -0.005491 -0.015075 0.012653 0.006456 -0.002868 0.003851 0.006377 -0.010821 -0.007186 0.001299 0.015447 0.017368 0.008220 0.021169 -0.011304 -0.015048 -0.009061 0.013342 0.019776 0.005854 0.003615 0.003747
arc -0.008215 0.015787 -0.007103 0.006743 0.002994 -0.001925 -0.014256 -0.008977 -0.006520 -0.003554 0.008677 -0.000341 -0.003303 0.002607 0.001213 0.017035 -0.016428 -0.003872 0.000354 0.022056 0.010188 -0.006296 0.002043 -0.013916 -0.001772 -0.006381 -0.014841 0.012548 0.000129 -0.003409 0.000583 -0.021263 -0.000132 0.006395 0.007709 0.006871 0.007138 -0.015493 -0.007072 0.004081 -0.019770 0.016360 -0.007551 0.004106 0.006053 -0.000580 -0.007563 -0.007150 -0.004881 0.004055
assumpt -0.005124 -0.003305 0.025583 0.014174 0.003021 0.002903 0.005238 0.003417 0.009398 0.006468 0.007200 -0.005485 -0.012351 0.002036 0.000434 0.013621 -0.005543 0.004149 0.010084 -0.014182 -0.000700 0.009540 -0.013780 0.023589 -0.001279 0.001724 -0.013897 0.004695 -0.004055 0.004481 -0.002894 -0.014996 -0.007023 -0.010393 -0.019639 0.007497 0.013628 -0.003085 0.013736 0.013193 0.000198 0.002859 0.012764 -0.011728 0.005144 0.000739 -0.012572 -0.000730 0.000102 0.004697
calcul 0.013546 -0.001565 0.009752 0.000637 -0.001333 -0.007329 -0.006393 0.015218 0.004964 0.013758 -0.010385 0.005992 0.005092 0.012102 -0.002151 -0.004695 0.001279 -0.004738 0.000461 0.008214 0.005941 -0.009956 -0.013012 0.019613 0.017401 0.005454 0.002931 -0.006752 0.015728 -0.003534 -0.016644 0.004532 -0.007090 0.013152 -0.009489 -0.011898 -0.010635 -0.004839 0.004216 -0.012023 0.007667 0.011249 -0.012195 0.009901 0.009453 -0.000197 0.001613 -0.010623 0.007888 0.003960
common 0.005936 -0.007895 -0.011476 0.000473 -0.007228 -0.015516 0.010442 -0.001922 -0.006391 0.011990 0.003616 -0.009536 -0.005826 -0.001582 0.011390 0.008581 -0.005909 -0.013528 -0.011597 -0.009770 0.002009 -0.024704 -0.020776 -0.006490 0.000952 0.003301 -0.009773 -0.009934 0.001196 0.005254 0.008489 -0.009376 0.010290 -0.002664 -0.013363 -0.002845 0.002498 0.011402 0.003095 0.008206 -0.005473 0.001066 -0.002889 0.008751 0.007400 -0.006036 -0.002195 -0.005959 0.001423 -0.006379
comput -0.006413 -0.000697 0.023447 0.012372 0.020659 -0.005814 -0.007013 0.007647 0.003598 -0.012869 -0.009894 0.004239 -0.013007 0.000450 0.012587 -0.011870 0.005382 0.002488 -0.001818 0.011699 -0.007743 0.019200 0.000913 -0.000155 -0.010720 -0.002056 0.009675 0.013076 -0.004449 0.000956 0.000212 0.003297 -0.012029 -0.003563 0.003919 0.009865 -0.006331 0.014963 0.022388 -0.005028 -0.004971 0.002201 -0.007879 -0.001506 -0.001098 0.009378 0.001949 0.007094 0.002735 0.006664
detail 0.000621 0.005190 -0.003043 0.005542 -0.001157 -0.005431 -0.006513 -0.006784 0.005437 0.001661 -0.002450 0.006648 -0.016324 0.002243 -0.008581 -0.014805 -0.005565 0.003999 -0.022952 0.005077 0.001234 -0.009389 -0.010498 -0.001382 0.000195 0.008224 0.015096 -0.007458 0.012119 0.000271 -0.003563 -0.005842 0.001163 0.002228 0.019377 0.004189 0.000720 -0.002435 0.008476 0.021272 0.015365 0.013714 0.019730 -0.006283 0.005498 -0.001644 -0.000925 -0.004974 0.008152 -0.007838
enabl 0.003244 0.006634 0.013109 -0.004092 0.012122 0.002738 -0.005675 0.003459 0.016911 0.011488 0.012122 -0.001221 -0.001799 0.003287 -0.015300 0.009616 0.001201 0.002064 0.003638 -0.007188 -0.001868 -0.004799 0.001015 -0.009282 -0.007743 -0.000156 0.012968 0.008877 -0.008516 0.013763 0.016619 0.007712 -0.009835 0.006583 -0.005745 0.008794 -0.010815 -0.000836 0.000506 -0.000221 0.007600 -0.002710 -0.014891 -0.006598 0.002496 0.006135 0.003498 0.004437 0.013663 -0.010386
experi 0.014369 -0.013233 0.010060 0.016657 0.011400 -0.001043 -0.005261 -0.010446 -0.003097 -0.009484 0.009621 -0.009158 -0.007816 0.010538 -0.005893 0.001055 -0.020802 0.002183 -0.013921 -0.001211 -0.009052 -0.004465 -0.010707 0.015322 -0.018586 0.023344 0.016673 0.000990 0.000760 -0.028699 0.004950 0.010542 0.006585 -0.011679 -0.004872 -0.013660 0.012843 -0.004521 0.000703 0.004977 0.009265 0.020023 0.010087 -0.015659 -0.007179 -0.007919 0.022740 -0.006526 0.020801 0.002260
exploit 0.007931 0.001657 0.004735 0.010851 0.010866 0.004867 -0.006934 -0.011894 -0.004200 0.006032 0.015223 0.015601 -0.021606 -0.011592 -0.002007 0.008840 0.014172 0.001541 -0.004914 0.009172 -0.004957 -0.007401 0.011359 0.023960 -0.009373 -0.005722 0.003039 -0.008793 0.003653 -0.016735 -0.016582 -0.000397 -0.002082 0.002614 -0.018451 -0.007012 0.001064 0.008896 -0.009753 0.006516 -0.023678 0.011118 0.008042 -0.008581 -0.006956 0.012739 -0.006899 -0.018501 0.009410 0.006901
frequencydistribut 0.002287 0.012345 0.004100 -0.020855 0.005627 0.003677 0.014193 0.002322 0.000928 0.012845 0.013684 -0.025385 0.012134 0.001840 0.020054 -0.004969 0.029643 -0.001719 0.014041 -0.003822 -0.024980 0.025523 0.000055 -0.013951 0.021776 -0.021489 -0.016255 -0.013027 -0.000177 -0.005788 -0.011372 0.021687 -0.017334 0.001612 -0.001712 -0.005532 0.006318 0.001138 -0.009136 -0.020781 -0.026075 -0.013096 -0.006406 0.013368 -0.009183 0.006475 0.001455 0.013639 0.008037 0.008655
import -0.009749 -0.000365 0.011938 0.017209 -0.013013 -0.003680 -0.000297 0.014811 0.002415 -0.005788 -0.006413 0.007726 -0.007370 -0.006349 -0.006076 0.005552 -0.003710 0.003257 0.003672 0.003894 0.011751 -0.000952 -0.002027 0.021504 0.009994 0.002083 0.006553 0.005765 0.015142 0.002011 -0.007828 -0.000999 0.005573 0.002737 -0.003154 -0.005393 0.002701 0.007565 -0.008540 -0.001273 -0.003916 -0.002709 0.008142 -0.007378 -0.002510 -0.009982 -0.005529 -0.009861 0.014263 -0.001554
mean 0.007278 -0.002928 0.024405 0.024641 -0.008862 0.008653 0.004805 0.008921 0.002224 -0.020261 -0.004290 -0.018935 -0.019677 -0.016611 0.000313 -0.006454 0.006055 -0.011164 0.007021 -0.004763 -0.015300 0.016794 -0.000651 0.004714 -0.005636 0.000918 -0.012223 -0.004977 -0.022007 -0.006099 0.004359 -0.009610 -0.004705 -0.010573 0.028399 -0.010547 -0.003820 0.038469 -0.007039 0.003499 0.007590 -0.000387 0.024354 0.000729 -0.001411 0.006082 -0.012094 -0.006460 -0.013105 0.011516
ound -0.004906 -0.001302 0.005953 0.007461 -0.017896 0.010266 -0.003389 0.003194 0.005973 -0.003113 -0.004025 0.000632 0.007482 0.003161 0.004936 0.004385 -0.002182 0.001619 0.001818 -0.002197 -0.001740 -0.009148 0.008545 -0.015485 -0.024132 -0.008974 0.002930 0.001842 0.011403 -0.002188 0.002466 -0.005915 -0.013598 0.002478 -0.009368 -0.011141 0.018634 -0.008102 0.015676 -0.010147 0.017450 0.014230 0.024060 0.012992 0.010719 0.015204 -0.002313 0.012976 0.012797 0.000218
prioriti -0.011774 -0.000020 0.003660 -0.003183 0.004786 -0.007821 0.004250 0.003020 -0.003742 -0.003569 -0.010624 -0.003357 -0.003308 0.002291 -0.005085 -0.009877 0.004547 0.002540 0.011556 -0.007674 -0.007760 -0.014060 -0.014142 0.001664 -0.009307 -0.005209 0.003184 0.010184 -0.004612 0.012863 0.006578 -0.012419 -0.002561 -0.005776 0.004155 0.004822 -0.006658 -0.002998 -0.003012 0.004211 -0.005733 -0.000596 0.000717 -0.009256 -0.014692 0.008591 0.008218 -0.004442 0.010615 -0.008035
situat 0.001064 -0.003433 -0.014800 0.000110 0.003026 -0.010144 0.014884 0.004465 0.015060 0.006503 -0.010829 0.011425 0.000862 -0.002658 -0.008448 -0.000016 0.004593 -0.006414 -0.008164 0.009134 -0.004416 -0.002772 -0.001020 0.010963 -0.003959 -0.011996 -0.004157 -0.007130 0.014864 0.005127 -0.008636 -0.021149 -0.005162 0.006667 -0.010732 -0.000294 -0.016426 -0.006188 0.001396 -0.001478 0.000011 0.001780 -0.001428 -0.004159 -0.001865 0.003084 -0.009872 -0.010779 -0.006063 0.007152
total 0.003945 -0.020135 0.022506 0.006899 0.001926 -0.011716 -0.007529 0.009794 -0.007467 0.005514 0.003641 0.008648 0.019501 0.004738 0.010530 0.011927 -0.001901 0.006740 -0.002562 -0.004208 0.001651 0.001989 -0.009779 0.010550 0.011709 -0.003030 -0.014571 0.025243 0.003125 0.014974 -0.002337 -0.003859 -0.012248 -0.018057 -0.008974 -0.018824 -0.006415 -0.008575 -0.008284 0.003167 0.014736 0.017352 0.006792 -0.015125 0.007458 -0.000582 -0.008693 -0.011524 0.010604 0.003118
approach 0.005179 -0.003168 -0.014064 -0.001547 0.002215 -0.004342 -0.008303 0.001087 -0.000079 0.011397 -0.007189 0.009610 0.001674 -0.018986 -0.000861 0.004424 0.001439 -0.001537 0.008510 0.006309 0.004080 -0.018135 0.009865 0.004152 0.013896 0.009106 0.015008 -0.003619 0.006469 -0.001486 -0.018804 0.011476 -0.011401 0.019116 0.018606 -0.006093 0.001392 -0.004874 0.002099 -0.009930 0.001213 0.014240 -0.010679 -0.000466 -0.006417 -0.009914 -0.003896 -0.002712 0.003240 0.016154
consid 0.010568 -0.002004 0.003285 0.001975 -0.000787 -0.009678 0.010236 0.002543 0.005275 -0.009055 0.004353 -0.006487 -0.003888 0.009789 -0.003907 0.004440 0.013416 -0.005638 -0.003597 -0.001660 0.006937 0.000623 0.003750 -0.003552 -0.006977 -0.009939 -0.011767 -0.007117 -0.008056 -0.011220 -0.011206 0.007575 -0.007360 -0.004045 -0.011559 0.003937 -0.000951 0.005011 0.005143 -0.001042 -0.001634 0.013912 -0.007478 0.004992 0.009522 -0.020865 -0.015541 -0.017079 0.013867 0.007141
current -0.006192 -0.001834 -0.009282 0.009663 -0.005210 0.008881 0.007314 -0.000257 0.003454 -0.000134 -0.008246 -0.007685 -0.001941 0.006202 0.015580 -0.007385 -0.001475 -0.018350 0.013818 -0.007732 -0.003779 0.002518 0.011873 0.004524 0.010963 -0.001792 0.014758 0.011563 -0.000095 -0.003924 -0.015820 0.005982 -0.006284 -0.006448 -0.014202 -0.010167 -0.005875 -0.000152 -0.017192 0.006527 0.008266 0.016595 -0.010452 0.007453 -0.011927 -0.000663 -0.002594 -0.009507 -0.002563 -0.001671
determin 0.009113 0.010977 0.003571 0.006497 0.007300 -0.006219 -0.015481 0.009774 0.018715 -0.014289 -0.003623 0.006580 -0.001776 -0.009160 0.005385 -0.008934 -0.017237 0.002759 0.013588 0.023167 -0.017076 -0.021084 -0.006220 0.000602 0.000156 -0.003775 -0.008279 -0.002586 -0.002052 -0.006500 -0.004616 -0.009987 -0.009622 -0.003083 0.015873 -0.002332 -0.008922 -0.009736 0.002733 0.008958 -0.021982 0.013372 0.009798 -0.021349 0.006454 -0.004422 0.005676 -0.007068 -0.018134 0.008453
evalu -0.002517 0.003037 0.000052 -0.011396 -0.001369 -0.016316 0.002245 -0.005898 0.007803 0.012507 -0.008238 0.009496 0.000386 -0.002617 -0.000771 0.007238 0.000229 -0.011101 0.008443 -0.011596 0.002815 -0.007899 0.002447 -0.003822 0.002433 -0.014197 0.003300 -0.007110 -0.018647 -0.004996 -0.011626 -0.001656 -0.001223 0.008902 0.001028 0.004586 -0.006783 0.013099 -0.000030 -0.004549 -0.014981 0.007025 0.010195 -0.002541 -0.006997 0.010584 -0.011432 0.002899 0.010152 0.012526
event -0.001300 0.006620 0.010437 -0.002814 0.005552 -0.009546 0.012683 0.011273 0.000924 0.010489 -0.018954 0.008989 -0.008637 -0.032112 0.019821 -0.013700 0.000063 0.005021 0.004880 -0.008845 0.015889 -0.019766 -0.015940 0.007067 -0.000947 0.008976 -0.018533 -0.001406 0.016117 -0.013767 0.002244 0.000726 -0.003022 0.009017 0.008206 -0.004396 -0.000902 0.005692 0.005256 0.004209 0.002403 -0.015418 0.018991 -0.006791 0.007029 -0.010563 0.000393 -0.013155 0.002064 -0.001077
extend -0.009400 -0.017713 -0.004182 0.013498 0.006779 0.011084 -0.022832 -0.012350 -0.009784 -0.010033 -0.017938 -0.005057 0.017322 0.000443 -0.030247 -0.004063 -0.012441 -0.004521 -0.007495 -0.006344 0.003408 -0.002656 -0.002784 0.020278 -0.008488 0.011689 0.004913 -0.003921 0.026232 0.003547 -0.000730 -0.016252 0.014360 0.004901 -0.002125 -0.001126 -0.006385 -0.001014 0.016971 0.022943 -0.029227 -0.004392 0.001368 -0.007116 -0.005824 -0.002485 -0.002604 -0.019384 0.013019 -0.014195
find -0.012434 -0.015122 0.014191 0.019743 -0.014045 0.019862 -0.021204 -0.020868 -0.013214 -0.018182 0.002155 -0.013367 0.007956 0.003238 -0.017764 0.004641 0.006503 0.000210 -0.009687 -0.010501 -0.016660 -0.005167 -0.013399 0.011066 -0.010537 -0.020264 0.014406 0.018105 0.003159 -0.001734 0.002989 -0.003235 0.018867 -0.006575 0.000873 -0.012685 -0.005526 -0.004751 -0.002444 0.006335 -0.018446 0.009669 0.003392 -0.018450 -0.004712 -0.014808 -0.004414 -0.009002 0.012396 0.007295
frequencydistribut-bound 0.003701 -0.005797 -0.006569 0.007685 0.004319 -0.006619 -0.008777 0.019757 0.023626 -0.006152 0.007313 -0.001583 -0.004823 -0.012483 0.007456 -0.023424 0.008376 -0.011980 0.006142 -0.012029 -0.001307 0.008283 0.010573 0.001645 -0.005850 -0.008320 0.001008 -0.003040 -0.001995 0.001345 0.018528 -0.002353 0.000703 0.001966 0.015846 0.020959 0.010746 0.011017 -0.004584 0.002137 0.003963 0.012170 0.000811 0.022586 0.010062 -0.000341 -0.007216 0.019011 -0.018773 -0.002697
higher -0.002896 -0.000966 0.008656 0.003734 -0.001126 -0.008267 0.004881 -0.002565 -0.009657 -0.006766 -0.011470 0.001210 -0.009439 -0.001491 0.000996 -0.009573 -0.005726 -0.016132 0.002409 0.005841 0.003360 -0.007375 -0.002918 -0.004896 -0.003658 0.003604 0.003543 0.005534 0.004413 0.007487 -0.004833 0.007689 0.012924 0.000157 0.004493 -0.007485 -0.010051 -0.005153 0.002911 0.004707 -0.006843 0.008974 -0.009257 -0.010784 -0.010530 0.016900 0.001932 -0.007110 -0.008729 -0.004447
highest -0.006709 -0.011504 -0.017246 -0.015150 0.014650 0.003458 -0.004513 0.007063 -0.008813 -0.009325 0.011929 -0.006200 -0.020294 -0.007576 -0.002199 -0.003593 -0.010333 -0.001339 -0.004354 -0.000820 -0.007579 0.001792 -0.009464 0.001411 0.010519 -0.006334 0.005197 -0.018952 0.014727 0.000405 0.012375 0.016453 0.001922 -0.008812 0.002547 0.003521 -0.001067 -0.005723 0.011930 -0.012370 -0.003811 0.004031 0.005367 -0.010887 0.012114 -0.007847 -0.000074 0.010237 -0.000320 -0.014515
increas -0.012350 -0.015362 -0.005349 -0.008091 -0.002729 -0.007712 -0.003419 -0.005535 0.010706 -0.012812 0.005324 -0.013805 0.020310 0.004771 -0.000626 -0.002557 -0.005676 -0.002899 -0.010202 0.010935 0.014397 0.014231 -0.001269 0.006630 -0.001252 -0.001007 0.008413 0.008932 0.001992 0.001911 0.000104 -0.008353 -0.002148 0.000723 -0.007663 -0.001339 -0.009482 0.002018 0.009880 0.003743 0.010882 -0.002695 -0.005571 -0.008162 -0.004487 0.000324 0.004202 0.008137 -0.005628 -0.009393
least -0.001513 0.003976 -0.020932 -0.013019 -0.014894 -0.002430 0.011921 -0.003597 0.002273 0.001387 -0.007661 -0.016444 0.002073 0.005392 0.008762 0.011814 -0.000845 0.012107 -0.008210 -0.008418 -0.006443 -0.000211 -0.004873 0.007172 0.009842 -0.007700 0.016643 0.006932 0.004777 -0.001778 -0.000921 -0.010731 0.013586 0.006277 0.008628 -0.014837 0.007050 -0.004185 0.016248 -0.002727 -0.010796 -0.002772 0.000710 -0.016420 -0.018543 -0.001916 0.010778 -0.009843 0.001919 -0.013125
major -0.018002 0.006253 0.010539 0.014010 0.007895 0.001718 0.000735 0.009264 0.004230 0.010212 0.003183 -0.001453 -0.016491 -0.003162 -0.002091 -0.005828 0.001936 -0.001403 0.019806 -0.001504 -0.018041 0.000302 -0.002986 -0.006549 0.010660 0.000405 0.005342 0.004819 0.008147 -0.009307 -0.007666 0.019325 0.013702 -0.005371 0.016914 0.007574 0.002509 -0.001209 0.005334 -0.003723 -0.002111 -0.001777 -0.015496 -0.002141 0.010417 -0.013607 0.003608 0.010327 -0.019130 0.001822
mode -0.008670 0.004240 -0.003419 0.011538 0.004854 -0.005161 -0.016061 0.009608 -0.015735 -0.001397 -0.013482 -0.005467 0.008910 -0.011231 -0.007583 0.000594 -0.012442 -0.012758 0.001205 0.018053 0.001949 -0.004974 -0.001315 0.003921 -0.002935 -0.013021 0.007399 0.007872 0.004101 0.010076 -0.002337 -0.008260 0.020890 0.022291 0.024448 -0.013620 -0.021402 -0.009711 0.000667 -0.001156 -0.007478 -0.011722 0.015358 -0.002761 -0.007662 0.007675 0.007192 -0.024120 -0.010068 -0.016465
numer -0.000937 -0.018298 -0.012146 -0.009566 -0.024691 -0.032119 -0.013307 -0.010888 -0.011558 0.003493 0.000141 -0.018343 0.016270 0.001352 0.021302 0.008172 0.001708 -0.003607 0.008500 0.011619 0.020502 -0.005887 -0.009163 -0.005432 -0.012245 0.000128 0.025562 0.035234 0.001788 0.005511 -0.001067 -0.002751 0.005221 0.018310 0.023939 -0.008586 -0.015753 0.004317 -0.001772 -0.006527 -0.003362 0.007213 0.030083 -0.012445 0.001349 0.011402 -0.030848 -0.036576 -0.004754 -0.011250
outofd -0.002048 0.014097 0.007271 0.002849 -0.011570 0.004740 0.008187 -0.004074 -0.000621 -0.007551 -0.015751 0.003806 0.000008 -0.007319 0.005855 -0.023499 -0.001796 -0.001005 0.010331 -0.003274 -0.002337 -0.011275 0.014036 -0.011324 0.018483 -0.004899 0.011845 0.015781 0.006450 -0.009324 -0.011826 0.005416 -0.002646 -0.003869 0.016809 -0.004578 -0.005131 -0.003411 -0.010990 0.009577 -0.012608 0.023767 0.001486 -0.004409 -0.007251 -0.010702 -0.008474 -0.006845 0.002290 -0.000764
particip 0.008054 0.013789 -0.019093 0.007338 -0.017773 -0.004888 -0.002063 -0.000269 0.020480 -0.012476 -0.012138 -0.002125 0.019253 0.007434 -0.008515 -0.010574 0.005930 0.008201 0.007212 -0.010077 0.002497 -0.010807 0.008183 0.000830 -0.007743 -0.001383 0.006202 0.015736 0.009535 0.008900 -0.013113 -0.005892 -0.002219 0.004259 -0.013885 -0.009113 -0.001141 -0.010583 0.003667 -0.016286 0.004239 -0.011805 0.001787 -0.005658 -0.013626 0.006164 0.018382 0.005387 -0.003517 0.016491
present 0.001966 0.008446 -0.010039 0.005644 0.006215 -0.006596 0.013426 -0.014381 0.018679 0.011328 0.011170 0.001086 -0.020807 -0.013338 -0.010315 -0.007485 0.009948 -0.001460 -0.022831 0.000084 0.003922 -0.016499 -0.003372 -0.010922 0.012537 0.009221 -0.016141 -0.002775 -0.005339 -0.009658 0.003085 -0.012883 0.009376 -0.016428 0.015427 0.018119 0.004919 -0.010518 -0.009133 0.023270 0.009761 0.008359 -0.003059 -0.011837 -0.016613 -0.015038 -0.000528 0.000562 -0.000668 0.015300
techniqu -0.001953 -0.010188 0.006863 0.000489 0.008185 0.002751 -0.009603 -0.003447 0.013320 0.001208 -0.002950 0.026503 0.009612 -0.007322 -0.012618 0.000292 -0.003152 -0.015330 -0.014617 0.017978 0.010823 -0.015437 0.009529 0.008023 -0.024794 0.005178 0.001450 0.000615 -0.001875 -0.005651 -0.005714 -0.004220 0.003284 0.006780 0.001827 -0.019969 0.007741 -0.010060 -0.001754 0.013147 -0.001258 0.001825 0.001381 -0.001557 -0.005691 -0.003335 0.010714 -0.011119 0.004364 -0.000544
absolut-bound 0.004394 -0.002569 0.008319 0.009733 -0.002533 -0.005806 0.004616 -0.003246 -0.001456 -0.007513 -0.014574 0.002998 0.000722 0.003180 0.002085 -0.015833 0.009390 0.009821 0.011459 0.016774 -0.006827 0.009109 0.000092 0.018826 -0.017765 0.007316 0.000963 -0.000054 0.018318 0.013084 0.008841 0.002067 -0.011223 -0.013250 -0.002679 0.003805 -0.005469 0.002110 0.007601 -0.005524 -0.004006 -0.003174 -0.003436 0.016776 0.007133 0.000057 -0.006858 0.007428 0.009501 0.004064
actual -0.001463 0.005279 0.007695 0.004163 -0.001583 0.001161 -0.017466 -0.004621 0.010132 0.002671 0.010604 -0.002339 -0.000988 0.021456 -0.004517 0.003407 0.010586 0.001037 0.005025 0.010246 -0.018629 0.006541 0.002319 0.005811 0.005595 0.010043 0.010722 0.011397 0.010948 -0.002453 -0.000737 0.003361 -0.004256 -0.008080 -0.016480 0.009177 0.010925 0.001111 0.018934 -0.009139 -0.014245 0.001706 -0.013649 -0.002594 0.007360 0.002025 0.006108 0.006821 -0.005600 0.010842
algorithm -0.008168 -0.007476 -0.012512 -0.011978 -0.009013 -0.006091 -0.006115 -0.009654 0.002410 0.009833 0.002650 -0.006161 0.004878 0.001687 -0.006648 0.001661 -0.007754 -0.003077 -0.005475 -0.012363 -0.008927 -0.011135 -0.014086 -0.010939 -0.005859 0.006687 0.000961 0.010103 0.002937 0.001462 -0.019377 -0.003828 -0.007164 -0.002746 -0.014922 -0.010820 -0.003392 -0.006651 -0.000961 0.003923 -0.004023 -0.004800 0.013504 0.016644 -0.009520 -0.000794 0.004859 0.010238 -0.000508 0.015432
appli -0.003775 -0.001981 -0.009786 -0.006655 0.008353 0.007816 0.000008 0.004225 -0.001857 -0.015662 -0.015313 0.013388 -0.010904 -0.008242 -0.019411 -0.002956 0.003899 -0.013971 0.003676 0.002936 -0.012307 -0.001540 0.013747 0.012703 -0.002839 0.001740 0.006508 -0.004568 -0.005357 0.013635 -0.003344 0.002155 0.013175 0.008704 -0.000379 -0.001319 0.018079 0.003525 -0.001409 -0.008956 -0.003452 -0.000442 0.001999 -0.001660 0.000494 -0.008860 0.007653 0.016512 -0.006285 0.004045
arbitrari 0.001532 0.000353 0.000397 -0.013587 0.013127 0.001933 0.018329 0.001517 0.000783 -0.002369 0.006496 0.008870 0.006078 -0.003260 0.007076 -0.004988 0.016592 0.001843 0.014777 -0.007539 -0.006529 -0.006308 -0.001027 0.009691 -0.006233 0.006743 -0.008147 -0.012749 -0.008943 -0.003320 0.011915 -0.003975 0.000776 -0.011273 -0.003407 0.015931 -0.003404 0.008149 -0.019399 -0.000458 0.000785 -0.000262 -0.010468 -0.000619 -0.016791 -0.014274 -0.007651 -0.002942 0.004749 0.000428
assign 0.002849 0.010257 -0.000134 0.000202 0.003418 -0.002649 -0.001003 0.003588 -0.000761 0.005057 0.008667 -0.009217 -0.021037 -0.013173 0.007035 0.000192 -0.012709 0.014684 -0.012913 -0.007581 -0.002309 0.004047 -0.015613 0.003557 -0.000761 -0.009545 0.002029 -0.004913 -0.000477 -0.004395 -0.007133 -0.008926 0.002188 0.003518 0.004329 -0.003843 -0.001587 -0.003709 -0.008423 0.007993 0.000152 -0.000821 0.000412 0.007146 -0.010382 0.005340 -0.009728 -0.020958 -0.011299 -0.015084
combin -0.010052 0.018947 0.006812 -0.008287 0.000212 -0.009528 0.012803 0.000568 -0.000192 -0.003861 -0.004125 0.016529 -0.013392 -0.028532 0.005064 -0.009097 -0.007146 0.005377 -0.009385 -0.002354 0.005536 -0.013103 -0.019047 0.017954 -0.002965 0.009735 0.007317 0.012651 0.010305 -0.001107 0.002340 -0.005964 0.000669 0.004485 0.018715 -0.006198 -0.003654 0.009748 0.009275 0.014004 0.009314 -0.006948 0.017170 0.000604 -0.002312 -0.005902 0.000121 -0.013993 0.009931 -0.012978
decreas-avail -0.001443 -0.004274 0.002402 -0.008664 -0.000922 0.007346 0.003893 0.003307 -0.004253 -0.005127 -0.003693 0.006596 0.001422 0.019388 -0.008454 0.023190 -0.007734 -0.000469 0.012025 0.013621 0.006677 0.000612 0.007066 0.014913 0.000656 -0.001530 -0.000826 -0.014946 0.009428 -0.012079 0.012466 -0.019452 -0.010803 -0.007454 -0.008039 -0.013660 0.012510 0.014712 0.013228 0.014957 0.010599 0.006772 -0.009813 -0.000331 0.016047 0.000402 0.011044 0.000242 0.000739 0.006496
definit 0.004718 0.008825 -0.007301 -0.001917 -0.019564 0.010341 -0.008156 0.003716 0.015101 0.021372 -0.010013 0.006902 -0.003995 0.013467 -0.008022 -0.006272 0.009373 0.003444 -0.004953 0.010456 -0.003828 0.011649 -0.013272 0.011624 0.017324 0.004470 0.001110 -0.006236 -0.002967 0.017177 -0.008873 -0.004496 -0.000751 0.005800 -0.020581 -0.022674 0.009119 0.009411 -0.016467 0.010356 0.008731 0.020231 -0.010281 -0.000198 0.007476 -0.006709 -0.006119 -0.010694 0.003711 0.003290
describ -0.005339 0.008247 -0.008819 0.011868 -0.009991 0.014360 0.012081 -0.006816 -0.009969 0.009386 -0.005737 0.004195 0.011350 -0.010805 -0.010710 0.002923 -0.000108 -0.005262 -0.004060 0.007640 0.011129 -0.009979 -0.012761 -0.005133 0.006108 -0.002126 -0.009884 0.016005 -0.007379 -0.000041 -0.009193 -0.003141 -0.007665 -0.001407 0.006307 -0.004333 0.009676 -0.000213 -0.006300 -0.009841 -0.006826 -0.008716 0.005197 0.002248 -0.003331 -0.018407 -0.010140 0.009145 -0.011574 0.022288
difficult -0.001267 -0.011101 0.009636 0.010383 0.005572 0.007494 -0.013255 -0.013716 -0.014016 -0.004759 0.003774 0.006045 -0.009780 0.005313 0.000749 0.015871 -0.011256 0.012952 0.011504 -0.007050 -0.011460 -0.003293 -0.004232 0.001584 0.005855 0.022405 0.014868 0.005636 0.021699 -0.016034 -0.006169 -0.003399 -0.006103 0.002688 0.009873 -0.001291 -0.002736 0.006527 -0.012692 -0.009418 0.003984 -0.005511 -0.010783 -0.009250 0.001383 -0.008532 0.008739 -0.009678 0.016460 0.018851
drawn -0.006323 0.004442 0.005696 -0.006757 0.001434 -0.005871 -0.006595 0.001699 -0.000390 0.003615 0.002184 -0.008643 -0.002342 0.017899 -0.013433 0.003865 0.001454 0.019459 0.007893 0.011545 -0.007026 0.016147 0.019348 0.007631 0.000114 0.009004 0.010274 -0.007114 -0.003249 -0.009629 0.007097 -0.002061 -0.012310 0.001822 -0.005563 -0.000365 -0.016386 -0.014439 -0.001547 -0.005550 0.002611 0.004310 -0.003000 0.005493 0.015871 -0.005760 -0.006499 -0.003449 0.004818 -0.007410
examin -0.000313 0.003993 0.012963 0.010850 -0.007466 0.005437 0.008074 0.001876 0.011383 -0.001389 0.001837 -0.003353 -0.015225 -0.002502 -0.000974 -0.016304 0.006482 -0.007871 0.019258 -0.001555 -0.002823 0.011870 -0.011499 0.012970 -0.000608 -0.006687 0.000600 -0.007225 0.008125 -0.004605 0.000507 0.004929 0.011854 -0.006725 0.016628 -0.000098 -0.015357 -0.004557 -0.004913 -0.001280 0.006816 0.009714 -0.017167 0.016650 0.007544 -0.011165 -0.002908 -0.001158 -0.022728 0.002970
fail -0.001068 0.014892 0.005112 -0.000028 0.004014 -0.009223 0.017643 0.010294 -0.009234 0.000098 -0.004204 -0.003104 -0.011873 -0.009300 0.000471 0.003353 0.011211 0.013302 -0.000900 -0.016947 0.010052 -0.011089 0.006394 -0.012172 0.000013 0.012925 -0.003244 -0.007299 -0.004599 -0.003526 -0.019198 -0.000927 -0.007103 -0.003309 0.013473 0.001853 -0.012702 0.003707 -0.010713 -0.003069 0.001021 -0.013237 0.001586 0.002063 0.016430 0.000302 -0.014080 0.008068 0.006843 0.000986
gather 0.001873 -0.005809 0.004836 -0.005043 -0.020081 0.018073 -0.017584 -0.011863 -0.011310 -0.010752 -0.005544 0.018170 0.001924 0.004923 -0.007565 0.018464 -0.004510 0.001492 -0.002631 0.008434 -0.000436 -0.002953 0.000787 -0.015837 -0.000290 -0.015754 0.001765 -0.020166 -0.004368 0.000462 -0.010239 -0.010396 -0.004295 -0.000966 -0.005968 0.006069 0.004441 -0.003744 0.006589 0.008777 -0.013651 0.014795 0.005613 -0.008308 0.008022 -0.003910 -0.015701 -0.013348 0.003778 0.000725
give -0.013110 0.001361 -0.004640 0.015154 0.010248 -0.012052 -0.010051 -0.001873 -0.002275 -0.010889 -0.012267 0.005950 -0.009165 0.003192 0.001779 0.010502 0.003442 0.001341 0.000908 -0.014532 -0.002047 0.007089 -0.008348 0.000627 0.002015 -0.003229 0.004019 0.004032 -0.003347 -0.006569 0.008632 0.013935 -0.006055 0.005364 -0.005231 0.011638 0.000453 -0.004182 -0.001032 0.013991 0.012548 0.013182 -0.003415 -0.011605 -0.014276 0.000904 0.012192 0.001395 0.015237 -0.007667
good -0.003337 -0.002254 -0.003833 -0.002175 -0.001591 -0.000329 -0.004127 0.000699 -0.006516 -0.008478 0.002259 0.000183 -0.012973 -0.008139 -0.002805 0.008160 -0.010857 0.001125 0.010022 -0.001506 -0.000690 -0.004665 -0.016786 -0.010443 -0.016318 -0.011809 -0.007095 -0.019753 -0.009959 0.002171 0.002642 -0.006866 0.006396 -0.000107 0.001829 -0.001877 0.004915 0.000244 -0.005666 0.002404 0.009120 0.001524 -0.004686 -0.007348 0.011066 -0.016654 -0.003086 0.000171 -0.000154 0.008323
investig -0.003084 -0.010388 -0.009096 0.004803 0.010688 0.008622 0.003945 -0.001208 -0.006960 -0.009292 0.000359 -0.014725 -0.007308 -0.010589 -0.004306 0.001985 -0.011487 0.015768 -0.004425 0.000011 0.003061 -0.000509 0.013212 0.010024 0.003665 -0.007081 0.007525 -0.010565 -0.001110 -0.005891 -0.003919 0.009341 0.003831 -0.015473 0.007750 -0.001209 -0.001404 -0.015356 0.003771 0.007753 -0.010794 0.000458 -0.005598 0.000744 -0.003336 -0.005668 0.005649 -0.001820 0.010303 -0.012297
knowledg -0.008873 0.003730 -0.012382 0.014893 0.015440 -0.008121 -0.001936 -0.021608 -0.001089 0.002838 -0.005016 0.001597 0.019155 -0.014940 -0.000725 0.001406 -0.014951 0.004048 -0.006195 0.004696 -0.007461 -0.014135 0.003240 -0.003055 -0.011615 0.004958 -0.011987 0.006667 0.009216 0.008315 0.008866 -0.018069 -0.007608 -0.003081 -0.008605 -0.008377 0.010561 0.006510 0.006829 -0.003973 0.014310 -0.000762 0.010145 -0.014107 0.000923 -0.005695 -0.004330 0.010045 0.010558 0.015805
languag 0.016770 0.012260 0.002446 -0.023232 0.004094 -0.003673 -0.016679 -0.002403 -0.024139 0.013792 0.006166 0.001715 -0.007789 0.001107 -0.021112 0.021618 -0.005714 0.013654 -0.009383 -0.010764 -0.023761 -0.007546 0.017633 0.016720 -0.004297 0.012993 -0.000758 0.009398 0.014560 0.008608 -0.004731 -0.008061 0.004718 -0.015816 -0.007178 -0.003241 -0.009478 -0.019892 -0.004884 0.002675 -0.008774 0.013357 -0.006416 -0.000063 0.007777 -0.001621 -0.006233 0.014054 0.007383 -0.015956
larg -0.001816 -0.011804 0.018072 0.002712 0.009375 -0.008198 -0.018655 0.000742 -0.000257 -0.001118 0.003733 0.009116 -0.007806 -0.000802 0.001803 0.005931 -0.003598 -0.018505 -0.004340 0.003050 0.012040 -0.001449 -0.007778 0.009040 0.008900 0.000594 -0.007410 -0.015283 0.009657 0.011306 0.004716 -0.004074 0.001707 -0.006357 0.000188 -0.002193 -0.023709 0.003571 -0.000936 0.017253 0.002663 0.011358 0.002441 -0.011931 0.003596 -0.004784 -0.024934 -0.011867 -0.009264 -0.002174
list 0.009105 0.018137 -0.010143 -0.009754 0.007233 -0.000386 -0.013123 -0.008626 -0.005652 -0.008149 -0.002422 -0.007352 -0.004931 -0.005818 -0.011970 0.022188 -0.001874 0.002556 0.008915 0.003874 0.007608 -0.006430 0.005569 -0.008980 0.007311 0.021235 -0.006360 0.010131 0.012801 0.023616 0.002680 -0.017995 0.011471 0.015523 -0.004384 0.000699 -0.012534 0.001697 -0.005260 0.009497 -0.010917 -0.000467 -0.000460 -0.000322 -0.005843 -0.000267 0.008709 -0.006542 0.007043 0.007326
map 0.007489 0.021164 0.002494 -0.006792 -0.001962 -0.007585 0.027733 -0.010887 0.003117 -0.000818 0.009693 0.003617 -0.017104 0.010643 -0.008219 -0.003980 0.006684 0.010871 -0.011097 0.002740 0.017751 0.008093 -0.000564 0.004422 -0.001303 -0.015538 -0.016995 -0.014301 -0.011549 0.007827 0.001196 0.016613 0.011576 0.005301 -0.016921 -0.005563 0.013818 -0.020674 0.004262 0.004477 -0.005593 -0.023696 -0.004745 0.011766 -0.009543 -0.007081 0.006151 0.004850 0.008094 -0.005441
moment 0.002227 -0.007638 -0.002674 -0.004821 0.014364 -0.025459 -0.011127 0.015320 0.001932 0.008633 -0.014315 -0.009376 0.006695 -0.014538 0.008857 0.003144 -0.023316 0.005404 0.002899 0.000992 -0.009797 0.003751 0.003053 -0.006059 -0.005014 -0.001687 -0.014430 0.004136 -0.014691 -0.013232 -0.007788 0.008737 0.013481 -0.005103 0.026229 -0.007435 -0.006458 0.003929 0.016523 -0.006771 0.015535 0.000741 0.007180 -0.005238 -0.011448 0.016384 0.001895 -0.016716 -0.010062 -0.006328
number-distinct-valu -0.006122 -0.001598 0.001502 0.009263 -0.012661 -0.019149 -0.011012 0.020279 0.001639 -0.003482 -0.000392 -0.003248 -0.014044 0.017611 0.002753 -0.004472 -0.001016 0.001919 0.007693 -0.002069 0.010460 -0.001515 0.009572 0.005849 -0.005011 0.002471 0.010665 -0.005146 -0.003837 -0.008438 -0.003365 -0.000209 0.003702 0.010488 -0.004758 0.009838 -0.002971 0.005903 -0.004328 0.005583 -0.011989 -0.000161 0.012542 -0.003001 0.000402 0.010479 -0.008886 0.011650 0.018007 -0.011420
paper 0.001989 0.000420 0.004434 -0.003181 -0.004670 0.011232 -0.021241 0.006150 -0.005680 -0.005997 0.010401 0.003451 0.010154 -0.014055 0.001357 -0.007726 0.010689 0.011907 0.008365 -0.013691 -0.005493 0.013766 -0.011049 0.000383 0.012388 -0.008198 -0.009576 -0.005652 -0.007015 -0.006399 0.008189 0.011819 0.014140 0.006313 -0.018701 -0.008957 -0.012434 -0.001052 -0.018320 0.001518 -0.020813 -0.003625 0.003897 -0.010972 -0.015825 0.016972 -0.004469 0.011721 0.018458 0.001210
point -0.000979 -0.001411 -0.005080 0.005290 0.007196 -0.011240 -0.007716 -0.008524 -0.008310 0.009226 -0.002891 0.013450 0.005534 -0.001658 -0.009461 0.003678 -0.008198 -0.005098 -0.013461 0.010319 0.016955 -0.019276 -0.005280 -0.011277 0.005689 -0.007938 0.001592 0.021502 0.009470 -0.001404 -0.013831 -0.016988 0.010009 -0.015842 0.002424 -0.002885 -0.007336 -0.003051 -0.003897 0.016770 -0.013182 0.014978 0.016321 -0.006675 0.002731 -0.002593 -0.003981 -0.011437 -0.008736 0.009405
procedur -0.001492 0.015682 0.006523 -0.012621 0.000706 0.009713 -0.010235 -0.008162 0.018123 -0.014405 0.004089 -0.017207 0.010172 -0.008628 -0.014019 -0.004454 0.001479 0.012940 -0.005052 -0.000904 0.005489 0.008674 0.003650 0.003690 0.009515 -0.022847 -0.002694 0.003702 -0.014613 0.003260 -0.018694 0.007601 0.012312 -0.015230 -0.013965 0.007086 0.014443 -0.004438 -0.005489 -0.011005 -0.003847 -0.005750 -0.009001 -0.011457 0.003975 0.009213 0.006526 -0.012007 0.002697 -0.009721
quorum-form -0.017093 -0.010604 0.008625 0.006557 0.005670 -0.008450 0.006513 0.006200 -0.018319 0.013316 -0.003619 0.001150 0.005558 -0.003102 0.008430 -0.009211 0.019915 -0.005841 -0.007928 0.009747 0.008289 -0.004061 -0.001277 -0.008904 -0.007740 0.001736 -0.000299 0.010323 0.005305 0.002200 -0.000797 -0.010413 0.003283 0.009163 -0.011325 0.003337 -0.015977 0.004846 0.004266 0.007821 0.008214 -0.001050 -0.008835 -0.000502 0.006715 -0.007988 0.009153 0.013436 -0.005568 0.001882
reason -0.001573 0.009013 0.005151 -0.009038 0.001127 0.000344 0.010237 0.004719 -0.005919 0.013478 0.003596 0.007018 0.007833 0.014482 -0.000168 0.018470 0.009556 -0.016516 -0.004682 -0.004157 -0.003646 -0.004474 -0.005967 0.002143 0.003936 -0.005689 -0.021924 0.012226 -0.002059 -0.002574 0.017898 -0.001337 -0.005771 -0.013123 -0.013094 -0.008452 0.019127 0.010513 0.010604 0.006772 -0.004611 -0.009630 0.006729 0.010464 0.009068 -0.001056 0.000301 0.005846 -0.008699 0.000676
resid 0.000549 -0.001173 0.015488 -0.002198 -0.009295 0.014121 0.004689 -0.004132 0.002820 -0.008850 -0.004815 -0.013027 0.004636 0.014724 0.001817 0.002846 0.004454 -0.003054 -0.002661 0.007736 0.001148 0.009805 0.006505 0.005878 0.011052 0.002805 0.018470 -0.001882 0.001093 -0.001864 0.010546 -0.002469 -0.005492 0.011651 -0.013234 0.014546 0.000081 0.002972 0.008170 -0.007358 -0.004306 -0.005145 -0.015430 -0.011716 0.017315 0.007558 0.019224 0.009589 0.011980 0.008925
rule -0.008737 -0.008486 0.015369 -0.004758 0.007133 0.003936 0.006181 0.003028 0.001999 -0.013818 0.005651 0.003130 0.003620 -0.003693 0.007267 -0.005607 0.007068 0.001702 0.001540 0.007294 0.001863 0.001739 0.000443 0.008214 -0.001104 0.003012 -0.003058 -0.011519 0.000573 0.010589 -0.016930 0.002981 0.000191 0.015714 -0.012770 -0.015652 0.001867 -0.011645 -0.006358 0.002385 0.000453 -0.001331 0.006884 -0.006785 -0.011168 -0.005710 -0.002371 -0.004321 -0.022026 -0.000457
similar 0.009034 -0.008298 -0.013336 -0.004992 0.014375 0.003361 -0.011608 -0.001088 0.001272 0.017901 0.005027 0.014458 -0.001687 0.009662 -0.001803 0.013302 -0.004509 -0.001679 -0.001979 -0.010090 0.008899 0.006752 0.014004 0.000131 -0.015267 0.016767 -0.001050 0.022489 0.012002 -0.018161 -0.002536 0.001880 -0.003630 -0.002035 -0.005571 0.012992 0.013719 0.003136 -0.006266 0.000916 0.011995 0.021825 0.000951 -0.008715 -0.002300 0.002851 0.008972 -0.007123 0.007194 0.006269
small 0.008878 -0.006363 -0.018630 0.006293 -0.007191 -0.017579 -0.009194 0.004141 0.003689 -0.000328 -0.006108 -0.005395 0.009144 -0.016131 0.000270 0.001384 0.011067 -0.009167 0.014870 -0.004678 0.012022 0.002838 -0.010785 -0.004410 -0.009236 0.005760 -0.007596 0.003912 0.008090 0.001037 0.001321 0.004912 -0.004667 -0.012240 -0.000586 -0.021612 -0.007967 0.001428 -0.017091 0.000179 0.012886 -0.003080 -0.011177 0.006302 -0.002568 -0.008389 -0.006611 -0.008545 -0.001207 0.000925
specif 0.003229 0.000801 -0.019129 0.009961 -0.007904 -0.008855 0.004431 -0.011391 -0.009880 -0.003258 -0.005264 -0.002819 -0.004734 0.014969 0.008959 -0.006195 0.005658 -0.001320 -0.017191 -0.011003 -0.007533 -0.004872 0.007742 0.006564 0.008404 -0.011847 -0.002079 -0.012863 -0.000850 0.009477 -0.014433 0.010773 0.004686 -0.003513 -0.003939 -0.016017 0.002598 0.009440 0.012199 -0.007990 -0.004502 -0.002389 0.000808 0.008403 0.016591 0.002494 0.004457 0.001904 -0.002648 -0.016305
statu -0.014233 -0.001653 0.007642 0.005854 0.005268 -0.006048 -0.008827 0.003340 0.012120 -0.012224 -0.002373 -0.011425 0.001670 0.003817 0.008619 -0.012136 -0.008820 0.002158 0.007879 -0.001304 -0.002361 0.008131 0.017178 0.002280 0.009873 -0.011246 -0.003662 -0.014560 -0.005873 0.008921 0.005710 0.004598 -0.010737 0.013263 -0.002066 0.010976 0.000324 -0.003776 0.000502 -0.010218 0.007631 -0.009809 -0.010512 0.011485 -0.021993 0.000967 -0.008619 -0.009582 -0.016902 -0.018150
structur -0.007763 0.006410 -0.003339 0.005497 -0.006664 0.004013 0.016169 0.004568 0.010539 0.001063 0.000706 -0.017818 0.006030 -0.002269 -0.013729 0.000794 -0.013690 0.006445 0.005820 0.005272 -0.007969 -0.017353 -0.005658 -0.004815 0.010198 0.016247 0.012315 0.000182 -0.001936 -0.004468 0.004079 -0.009595 0.013650 0.006483 0.015970 -0.000334 0.000512 -0.003774 -0.006856 -0.001408 -0.007406 0.010359 0.006853 0.004665 -0.013521 0.011905 0.010958 0.003225 -0.001633 0.002570
tend 0.016008 -0.000545 -0.016879 -0.002187 0.011119 0.003148 -0.009528 0.001315 -0.007179 0.007588 -0.001842 0.006969 0.005130 -0.003048 -0.010596 -0.009473 -0.002045 -0.004759 -0.008459 -0.010628 0.006757 -0.010323 0.016444 0.012195 0.009880 -0.002535 -0.000560 0.003208 -0.017086 -0.012827 0.009580 -0.014305 0.015147 0.006553 0.008473 -0.003051 -0.001897 0.007596 -0.000979 0.003931 0.011622 0.013586 0.017406 0.006679 -0.011865 -0.011649 -0.013918 0.008546 -0.006324 -0.005341
transit-fire -0.016307 -0.011147 -0.010819 -0.000823 -0.018295 0.001806 -0.008500 0.005589 0.002175 0.009877 -0.004288 0.017062 0.017882 0.000403 -0.000546 0.010102 0.003298 -0.002254 -0.004593 -0.008093 0.013129 -0.011374 -0.000813 -0.002152 -0.008595 0.013488 0.019614 0.000372 0.011494 -0.003631 0.002071 0.011309 -0.007062 0.005092 -0.006918 0.012802 -0.007059 -0.007592 -0.006569 -0.009278 -0.007197 -0.002559 -0.000758 0.006893 -0.001754 -0.000328 0.004813 -0.012896 0.003054 0.014923
upper-bound-size -0.001524 0.001925 -0.000127 -0.009996 -0.004691 0.004607 0.011716 0.009876 0.002399 -0.007891 -0.011200 -0.003321 0.000365 -0.012841 -0.008031 -0.005932 -0.000091 0.009799 -0.017860 -0.010504 0.009166 0.013226 0.007158 -0.000338 -0.003396 0.005226 -0.007344 -0.006662 -0.008753 0.006793 -0.012972 0.011738 -0.008268 -0.007783 -0.001315 -0.000024 -0.003660 0.004142 0.004861 0.008105 0.000023 0.001914 -0.007014 0.006637 -0.002544 -0.012048 0.006353 0.018073 0.018252 -0.019259
valu-attribut -0.013181 0.013064 -0.004935 -0.020268 -0.005264 0.002383 0.009025 -0.002826 0.001748 -0.003586 0.013094 -0.006233 0.003530 -0.010235 -0.005139 -0.007514 0.018297 0.000997 0.012714 -0.003988 -0.000884 -0.000529 -0.014157 0.007118 0.001436 -0.003268 -0.011885 -0.001878 -0.003378 0.016941 -0.013956 0.005937 -0.015994 0.002796 0.002224 -0.000632 -0.013990 -0.003167 -0.002498 0.006813 -0.004997 -0.019130 -0.009880 0.011834 0.008812 -0.004632 0.007041 0.002791 -0.001795 -0.014664
write 0.006346 -0.009483 0.013698 0.005866 0.015302 0.002458 -0.002509 0.013250 -0.011636 0.008157 -0.003949 0.005585 -0.004828 -0.018819 0.007812 -0.004401 0.008405 0.009002 -0.020149 0.001603 -0.017479 0.013482 -0.005641 0.012639 0.002399 0.006807 0.002043 -0.009818 0.003649 -0.004886 0.016673 -0.016026 -0.003844 -0.016797 0.007760 -0.017721 0.005061 -0.003620 -0.005740 0.009252 0.000378 0.009470 -0.004201 0.005927 0.001863 -0.004552 -0.012968 -0.004648 -0.010448 -0.001208
analyz -0.009719 0.014902 0.005172 0.000902 0.000096 0.011117 -0.020558 -0.009451 -0.014889 0.003813 0.011194 0.007238 0.004700 -0.016558 0.001059 -0.001259 -0.018751 0.006686 0.011653 0.005011 -0.000479 0.011555 0.000255 0.011579 0.002633 -0.007724 -0.004307 0.007680 -0.008335 0.001386 -0.013219 -0.020310 -0.002778 -0.007953 -0.007235 -0.001740 0.001235 -0.007245 0.003502 0.004385 -0.020310 0.005106 -0.005441 0.005837 0.004335 -0.004178 -0.002726 -0.010367 -0.005473 -0.001734
applic 0.011474 0.010397 -0.015514 0.010023 0.010429 0.003648 -0.010214 0.016095 -0.010883 -0.001475 0.010373 0.009476 0.012062 0.009159 -0.001466 -0.002233 -0.002121 -0.010886 0.008666 -0.001889 -0.001799 0.007823 -0.008938 0.006641 -0.006486 0.006433 0.008458 -0.001980 0.009431 -0.014287 0.008063 -0.016935 -0.003695 -0.001245 0.001305 -0.002874 -0.009969 0.003483 -0.006187 0.007294 0.000905 0.009169 -0.000322 -0.000258 -0.005700 0.004271 -0.002009 -0.004733 -0.000537 -0.002106
aris -0.020792 -0.014400 0.002928 -0.009598 -0.000246 -0.004790 -0.001896 0.001146 -0.013122 0.011140 0.013482 0.003156 -0.001886 -0.009918 0.004235 -0.004417 0.003828 0.005246 -0.002203 0.002308 -0.012869 0.013519 0.018053 0.007379 -0.020458 -0.006811 -0.006806 -0.018501 -0.002296 -0.006110 0.014060 0.004173 -0.012142 0.002047 0.000615 0.004097 0.011979 0.018521 -0.008533 0.012176 -0.003503 0.021112 0.019352 -0.001668 -0.008952 -0.008200 -0.006871 -0.021052 -0.004281 0.003518
averag -0.018228 -0.017940 -0.001363 0.013357 0.002506 0.008509 -0.016752 0.015081 -0.009300 -0.009706 -0.015869 0.003753 0.021635 0.003940 0.003096 -0.006358 -0.008387 -0.022519 0.006172 0.005564 -0.008880 0.022085 -0.005707 0.026389 -0.010721 0.010173 -0.000436 -0.000349 0.011152 0.003605 0.003205 -0.013409 0.019369 0.002246 0.019630 -0.007231 -0.026468 0.012301 -0.001819 -0.006536 -0.013931 -0.006447 -0.006642 -0.036683 0.005579 0.014822 0.009012 -0.003344 0.019942 -0.007770
bin -0.004294 -0.010202 0.000807 0.006579 -0.003375 -0.004559 -0.013546 0.019621 0.004632 -0.004727 -0.003123 -0.003357 -0.003116 -0.010092 0.001608 -0.020283 -0.018781 -0.008775 0.008526 0.002301 0.000886 0.014912 0.001885 0.007011 -0.008559 0.010577 0.011742 0.011059 0.000059 0.002284 0.005327 -0.012379 0.007707 0.002272 -0.000533 -0.003443 0.006629 -0.009480 -0.009010 0.002359 0.001299 0.008340 -0.001360 -0.005166 0.005777 0.011914 -0.007856 0.003981 -0.002078 0.005942
condit -0.003494 -0.001653 -0.007970 0.005139 -0.010261 -0.003032 0.010984 0.004515 -0.007742 0.007042 0.006872 0.001885 -0.007739 -0.000658 0.005869 -0.010938 -0.006070 -0.011101 -0.015235 0.000806 0.005440 -0.013067 -0.016176 -0.007725 -0.019729 0.006468 -0.005299 -0.009161 0.014453 0.007916 0.001046 -0.015900 0.017051 -0.007902 0.005751 0.012831 -0.004593 0.003960 0.000610 -0.007014 0.008251 -0.003789 -0.002346 -0.008091 0.003018 -0.001236 -0.005059 -0.004123 0.001674 0.009251
creat -0.002437 -0.001998 0.004025 0.014795 0.008676 -0.003668 -0.002951 0.003656 0.010464 0.006732 -0.008983 0.001936 -0.006302 0.002674 -0.010784 0.000114 0.007450 -0.014198 0.003676 0.004038 0.016800 -0.010284 -0.007947 0.006237 -0.013325 -0.008693 0.001111 0.006905 -0.000638 0.001104 0.001454 -0.001207 -0.003056 0.002142 -0.001167 -0.015186 0.003830 0.011328 0.010761 -0.002310 -0.002630 0.008296 0.004173 0.002549 -0.011435 0.006838 -0.008741 -0.013745 0.008311 0.001519
criteria -0.007679 0.000018 0.006686 0.018063 0.008414 0.003388 0.003842 0.018297 -0.013818 -0.003447 -0.014924 0.014170 0.015984 0.001233 0.004795 0.004153 -0.006592 -0.006051 0.004025 0.006578 -0.005840 0.005858 0.005424 -0.014412 0.011819 -0.004107 0.007937 -0.001181 -0.008984 -0.004818 -0.007469 -0.010727 0.000147 0.003152 0.013272 -0.010418 -0.000560 -0.006484 -0.007315 -0.001559 -0.003601 0.007059 -0.008710 -0.015828 -0.011744 -0.014435 0.002914 -0.002131 -0.016498 0.003506
current-wit -0.003997 -0.006446 -0.001004 0.006823 -0.015232 -0.004043 -0.014069 0.002611 -0.012922 0.006981 -0.000653 0.003883 0.000260 -0.007330 -0.013403 -0.005665 0.002234 -0.001867 0.003901 -0.008066 0.018031 0.003689 -0.002035 0.013858 0.001515 0.002054 -0.004728 0.006614 -0.002791 -0.003989 0.001398 -0.004095 -0.005489 -0.000504 -0.005040 0.000940 -0.011414 -0.001940 0.003433 -0.009469 -0.015928 -0.002321 0.004987 0.006701 -0.013034 0.006709 0.017536 0.014402 0.008765 0.004051
deviat 0.002829 -0.013236 0.000903 -0.006253 -0.010662 0.001695 -0.003362 -0.000188 0.008427 0.004300 0.016102 -0.003313 0.012777 0.010727 -0.008517 0.004147 0.005107 -0.015044 -0.004743 0.003544 0.011484 0.002713 0.005293 -0.012722 0.010787 -0.000228 0.008678 0.005972 -0.013591 -0.000875 0.006440 0.000347 0.001504 -0.010444 -0.005999 -0.005457 -0.011915 0.011834 0.007170 -0.006626 0.006330 0.004365 0.003139 -0.010868 -0.012976 0.006698 -0.002651 -0.017216 -0.013360 -0.000134
easili 0.008687 0.004320 0.012683 0.001098 0.007822 -0.013049 0.000207 -0.008781 0.010484 0.001217 0.006625 -0.017907 0.015127 -0.002394 0.012533 -0.001349 0.001294 -0.000942 0.009700 0.005699 0.004685 0.004563 -0.012433 -0.007422 -0.001264 -0.012671 -0.001537 -0.002502 0.002490 -0.001353 -0.017316 -0.017451 0.013075 -0.004264 -0.000112 -0.005603 0.013151 -0.010109 0.006889 -0.012231 0.003862 -0.014093 0.007370 0.004046 0.000915 0.007994 -0.004770 -0.000642 -0.004199 0.001672
exist -0.005180 -0.008463 -0.009873 -0.003383 0.010747 -0.012688 -0.026779 0.008645 -0.020494 0.005169 -0.010224 0.007518 0.004607 -0.003816 -0.003896 -0.011959 0.004244 -0.003573 0.013889 0.024043 0.014949 -0.004262 -0.005951 0.004704 -0.002204 -0.010722 -0.005823 0.004235 0.006720 -0.002375 -0.007510 -0.007017 -0.005916 -0.006221 0.003654 0.016844 -0.003505 -0.011431 0.008322 -0.002145 -0.011380 0.009561 0.000403 -0.015844 -0.005009 -0.005508 -0.011615 -0.012271 -0.010806 -0.001532
factor 0.001506 -0.003119 0.004363 0.007448 -0.015342 -0.000785 -0.003025 0.001745 0.011500 -0.009420 0.004346 -0.009012 0.009606 0.004584 -0.009799 -0.009445 0.009597 -0.015976 0.001679 0.004490 0.015439 -0.013374 0.005546 0.006538 -0.011679 -0.004149 -0.010436 -0.010838 -0.008206 0.009406 0.005366 -0.010376 -0.000776 0.003766 -0.007712 -0.017468 -0.010193 -0.006033 0.006979 0.003169 -0.001784 0.003601 0.002153 -0.005262 -0.005039 0.002672 -0.008238 -0.002250 0.005940 -0.002874
file-system 0.000541 -0.019270 -0.008195 -0.012554 -0.002902 -0.001526 -0.008742 -0.012144 -0.014218 -0.000964 0.010738 0.002385 -0.014664 0.001138 -0.006948 0.018888 0.001699 0.005815 -0.010134 -0.002776 0.007422 -0.002322 -0.000874 -0.005195 -0.012742 0.015012 -0.013656 0.007895 0.001978 0.007162 0.008529 -0.013129 0.007915 0.004473 -0.012450 -0.010402 -0.007530 -0.007481 0.003599 0.007899 -0.006113 -0.015745 0.009119 0.014078 -0.010453 -0.003127 -0.007933 0.001209 0.015426 -0.002812
fit 0.005052 -0.007476 -0.018316 -0.010962 -0.017573 0.007166 -0.028746 -0.010040 -0.022843 -0.016132 0.010581 0.018062 0.023214 0.006873 0.001455 -0.013186 -0.019150 -0.015687 -0.009073 0.000394 0.029530 -0.014658 -0.009885 -0.013843 -0.007477 0.011739 0.025016 0.015168 -0.002707 -0.021475 -0.009350 -0.001663 0.013363 -0.002078 -0.014177 -0.022956 -0.015361 -0.009351 -0.020121 0.006998 0.001987 0.016576 0.005931 -0.019245 -0.010979 -0.009121 -0.007287 -0.004193 -0.021506 -0.007552
fo -0.001807 -0.020799 0.003683 -0.005289 0.011017 0.000841 -0.010601 0.017504 -0.011132 0.008902 -0.008763 -0.001101 -0.004279 -0.019576 0.003984 -0.010617 0.003613 0.002282 0.011739 0.007051 0.005630 -0.001712 0.004005 0.021848 0.015955 0.003148 -0.010866 0.004892 0.015367 -0.002132 -0.004190 -0.004797 -0.012025 0.010666 0.018061 -0.020329 0.001974 -0.002188 0.000432 -0.001086 0.001127 0.012458 -0.002974 0.007323 -0.000698 -0.014292 -0.013681 -0.007841 -0.001255 0.010379
frequenc-common -0.001363 0.011403 0.000803 -0.005693 -0.007804 0.007989 0.002109 0.003430 0.003815 0.002568 -0.001374 0.011472 -0.003771 -0.005666 -0.002090 -0.004515 -0.000759 -0.004688 0.004207 -0.001570 0.000119 -0.017764 -0.001626 -0.003359 -0.004754 0.015669 0.004237 -0.009839 0.008765 0.009101 0.013447 0.010694 0.000948 0.006790 -0.004533 0.015099 -0.014185 0.008279 -0.001866 0.020243 0.010850 0.000005 0.000946 0.002866 -0.000369 -0.000287 -0.002132 0.006480 0.015563 0.005197
hour 0.003262 0.008754 -0.000119 0.011691 -0.012672 -0.017384 0.013260 -0.002346 -0.014591 -0.011788 0.005712 0.015840 0.008499 0.001271 0.004852 0.032153 0.000500 0.015654 -0.012820 0.013646 0.000014 -0.008734 0.016296 -0.017017 -0.028019 -0.001948 -0.024623 -0.013637 0.005250 -0.013201 -0.010893 0.021000 0.012118 0.019750 -0.013108 0.006227 -0.004688 0.011683 0.030221 0.010198 0.007755 0.007758 0.015981 0.011471 -0.015163 -0.036495 -0.008435 -0.026932 0.011290 -0.026643
improv -0.000256 0.012801 -0.020307 0.006322 -0.002335 -0.002031 0.006515 0.004985 0.010294 -0.000050 0.013160 0.009462 0.004029 -0.006510 0.006804 0.006877 -0.000672 -0.012874 -0.008390 -0.012201 0.011784 0.011666 -0.002932 0.006535 0.001542 0.000830 -0.007803 -0.011704 -0.007343 -0.001703 0.011300 -0.003473 0.011595 0.003729 0.003960 -0.000798 -0.000384 0.007329 -0.009349 -0.000240 -0.004494 0.002622 0.003675 0.007632 -0.012619 -0.001355 -0.013995 0.005410 -0.007129 -0.012060
infer -0.007772 0.016438 0.016375 0.021854 0.002920 -0.004583 -0.004775 -0.007351 0.004912 0.019189 -0.008721 -0.004102 -0.003091 -0.005175 -0.000110 -0.006258 -0.001934 -0.012575 0.004293 0.012294 0.004003 0.016869 0.004803 0.004835 0.009059 -0.011478 0.007111 0.004130 -0.006891 -0.007973 -0.008713 -0.028687 -0.000502 -0.007588 0.002620 0.002819 -0.001998 -0.004029 -0.015596 -0.001027 0.001572 0.000098 -0.000332 -0.008001 -0.018773 -0.002264 -0.018240 -0.019052 -0.007455 -0.006425
kind 0.007982 0.015724 0.021031 -0.000685 -0.002137 -0.009407 0.006973 0.003997 -0.005576 0.000163 -0.012762 0.012509 0.013349 -0.006350 -0.008673 -0.014610 -0.005021 -0.010094 0.015882 -0.000169 0.002142 0.017789 0.005001 0.008274 0.002913 -0.007005 -0.010567 0.011252 0.007032 0.007964 -0.001589 -0.008482 0.004955 0.013787 0.004992 0.006624 -0.004581 0.001213 -0.010008 0.011073 0.001262 -0.000288 0.018109 -0.006774 -0.022750 -0.006856 -0.006612 -0.002319 0.002750 0.013386
level-lower-bound 0.002791 -0.024204 -0.008700 -0.012045 0.019539 -0.005446 -0.010522 0.002144 -0.004822 -0.013990 -0.021105 -0.012254 0.008095 -0.003321 0.003384 0.008012 -0.005052 0.013847 0.022683 -0.007862 0.012555 0.002174 -0.011901 0.014768 0.011888 0.008513 -0.001156 -0.011905 -0.016037 0.007675 -0.016711 -0.001802 0.010341 -0.001147 0.002437 -0.006014 0.010560 0.020608 0.018904 0.003901 0.001272 -0.000906 0.009411 -0.015079 -0.016095 -0.009739 0.011316 -0.018761 0.000133 -0.010516
manual-reconstruct-file 0.009237 -0.012610 0.012249 -0.002144 0.002145 0.004348 -0.005751 -0.003371 0.009863 -0.010875 0.014054 0.007909 0.008590 0.006607 0.003091 -0.004672 -0.002138 0.001802 -0.000707 -0.004297 0.001563 -0.002054 -0.012043 0.011035 0.001136 0.001849 0.002638 0.006207 -0.003486 -0.002566 0.008657 -0.000520 0.011186 0.003996 -0.000841 0.011366 -0.009971 0.013916 -0.014334 -0.012802 -0.003386 -0.006586 0.000166 -0.016070 -0.011344 0.003689 0.006386 -0.012465 0.004091 -0.016468
mark -0.002431 -0.001310 0.005523 0.009833 -0.007319 0.004255 0.002302 -0.009974 -0.004072 -0.004999 0.003143 -0.015506 -0.012345 -0.009810 0.005067 -0.003112 -0.013439 0.005759 0.004423 0.006453 -0.012985 -0.009474 0.016025 -0.003617 0.017665 0.005266 0.007826 -0.001781 -0.001100 0.006692 -0.012010 0.012556 0.016504 -0.007925 -0.009831 0.001448 0.002391 -0.003573 -0.006579 0.001018 -0.015547 -0.009663 -0.006766 -0.017922 0.021130 -0.001779 -0.012321 -0.019314 -0.015604 0.014735
measur 0.010190 -0.002137 -0.005912 0.009560 0.015081 0.013813 0.003297 -0.012007 -0.000036 0.000655 -0.008759 -0.000836 -0.010365 0.007273 -0.006413 -0.004891 -0.005858 0.008959 -0.004882 -0.009179 -0.014479 0.009882 -0.013587 0.001474 -0.000067 0.015681 0.004894 -0.008532 0.006350 -0.003210 -0.019811 -0.013244 -0.002718 -0.007706 0.001243 0.002162 -0.011798 0.007106 -0.005856 0.013833 -0.016319 0.011584 -0.004541 -0.017115 -0.005247 0.001763 -0.013967 -0.001651 -0.008001 -0.004143
minima -0.010984 0.007813 0.011091 0.002930 -0.013173 -0.008020 0.001174 0.011008 -0.000131 -0.013503 0.010158 0.016896 -0.007103 -0.011066 -0.005784 -0.003546 0.016912 0.013546 0.016835 -0.002581 0.008284 -0.009633 0.010574 0.005126 0.015949 -0.000999 0.019024 -0.006280 0.007454 -0.001230 -0.002946 0.015277 -0.003105 -0.005338 -0.003565 -0.004412 -0.001037 0.001055 0.000505 0.009095 0.017863 -0.003630 0.003353 0.017983 0.007524 -0.011186 0.001090 0.018442 0.023022 -0.007451
minimumterm-form -0.004315 0.002604 0.005255 0.007840 0.014996 0.008549 0.000705 0.013271 0.011225 0.008485 0.000543 -0.011327 0.014699 -0.003476 -0.011272 0.010077 -0.008578 -0.014103 -0.002506 0.000962 -0.004208 0.005521 0.009644 0.005850 0.007405 -0.001099 0.008988 0.006490 0.003337 0.014892 0.005079 -0.005235 0.001915 -0.007462 -0.007445 0.018817 -0.000810 -0.009169 0.002371 -0.001113 0.017451 -0.021132 -0.014712 0.016431 0.010067 -0.008964 -0.004742 0.013184 -0.004611 0.007568
multipl 0.019032 -0.005206 0.002319 -0.007664 0.022425 -0.006952 -0.000165 0.011765 0.005342 -0.006659 0.004247 -0.012877 0.010022 -0.014607 0.005868 -0.009211 0.003700 -0.007891 0.010665 -0.004108 -0.012855 0.024949 0.000988 -0.009564 0.021232 0.000231 -0.010416 -0.015639 -0.006044 0.007985 0.010419 0.011331 0.005831 0.016125 0.015199 0.001201 -0.017832 0.017128 -0.010762 0.001860 -0.000274 -0.002705 -0.005729 0.015127 0.000192 -0.003842 -0.002755 0.012128 -0.013853 -0.006812
net 0.004409 -0.001127 -0.013846 0.009022 -0.013473 -0.004391 -0.005961 0.006495 0.002497 0.025415 0.003157 -0.007231 -0.002113 0.001338 0.001424 0.001292 -0.001764 0.015290 -0.022355 -0.005552 0.008018 -0.012689 -0.012781 0.008911 0.016674 0.003292 -0.012296 -0.000385 -0.010362 0.021342 -0.007798 -0.001243 0.004846 -0.004029 -0.016016 -0.012490 0.018809 -0.003847 -0.013771 -0.004058 0.008938 0.003161 0.000510 0.013610 0.014065 -0.010011 0.004354 0.006639 0.016074 0.006208
ntersect 0.006740 0.009602 -0.000707 0.009332 -0.012839 -0.014204 0.007661 0.013270 -0.015835 -0.005278 -0.019919 0.004214 -0.000349 0.003037 0.011265 0.004124 -0.009663 -0.000583 0.012851 -0.003535 -0.001531 0.009486 -0.008355 0.022028 0.003536 0.020549 0.016053 -0.019061 0.004582 0.018153 0.007225 0.009077 0.009252 -0.006143 0.001963 0.004316 0.003569 0.016949 -0.003403 0.007110 -0.002424 -0.013755 0.005127 0.004871 0.001525 0.006357 0.014149 -0.000881 0.012851 -0.003189
number-item -0.001430 -0.001572 -0.003484 0.005277 0.018628 0.000545 -0.019977 0.002698 0.021634 0.004398 0.007746 0.022013 -0.007159 -0.017904 0.001558 -0.013398 -0.016902 0.009251 0.006677 0.002809 -0.005815 -0.007196 -0.001953 -0.011990 -0.010919 -0.002493 -0.004101 0.002727 0.003230 0.012709 -0.001088 -0.016391 0.001292 -0.016581 -0.002638 0.002636 0.009712 -0.009897 0.006822 -0.001132 0.002948 0.001960 0.010824 -0.016664 -0.008151 -0.004593 0.013716 -0.004103 0.007444 0.009431
optim 0.008014 0.007610 -0.000769 -0.003271 0.005005 -0.016295 -0.006428 0.000917 -0.013107 0.007107 -0.008521 0.021841 -0.002808 0.002611 -0.000906 0.005583 -0.009927 0.002642 0.011095 0.001177 0.008679 0.010728 -0.006476 0.008240 0.010456 0.000131 0.013353 0.017212 0.007352 0.007142 -0.014898 0.001848 0.001484 0.010264 0.005727 0.012187 -0.002213 0.014488 -0.009839 -0.004064 0.003304 0.001050 -0.002137 -0.004707 -0.007881 -0.007742 -0.018992 -0.010002 0.017714 0.004622
order -0.000007 0.005653 -0.014597 0.013510 0.000759 -0.003744 -0.022960 0.003787 -0.003050 -0.003507 0.001083 -0.002510 -0.010157 -0.009831 -0.016512 -0.002847 0.009956 0.010948 -0.004729 0.003583 0.015225 -0.005437 0.006059 0.001549 0.004252 0.002857 0.001762 -0.003948 0.004569 0.001422 -0.002214 -0.008093 0.005090 0.013317 0.016642 -0.014033 -0.007882 0.009374 0.008155 0.008382 -0.003376 0.000429 -0.001078 -0.009303 -0.010254 -0.009084 -0.000922 0.000367 -0.003884 0.010897
oth 0.001539 0.006674 0.009025 0.017854 0.011169 -0.005455 0.004292 0.013204 -0.014584 0.009849 0.006435 0.003876 -0.004656 -0.003669 -0.012462 0.003455 0.007004 0.011348 0.008520 0.006199 0.011133 0.000988 -0.008718 -0.005828 -0.007020 -0.008210 -0.003845 0.005602 0.001319 -0.008246 -0.004040 -0.021088 -0.007335 0.008930 0.000902 0.002055 0.001657 -0.016292 -0.003582 0.008624 0.004374 -0.005490 0.006985 -0.005213 -0.007329 0.006891 -0.013097 -0.000912 0.005718 0.001327
ow 0.015656 -0.004312 -0.010781 -0.000523 0.005360 -0.005896 0.010662 0.004345 0.004119 0.006123 0.011008 -0.003969 0.000063 0.004305 -0.001796 0.002964 -0.000951 0.009464 -0.001898 -0.000004 -0.015833 0.005466 -0.013536 -0.006527 0.019090 -0.004676 0.002500 -0.013952 0.001347 -0.006568 -0.002245 0.003632 -0.009795 -0.008389 -0.008791 0.001893 -0.012547 -0.006603 -0.001747 -0.000188 -0.003832 0.009872 0.005255 0.004352 0.014664 -0.012916 0.011850 0.008086 0.016421 -0.001607
paramet 0.003398 0.019396 0.004134 -0.008837 0.010392 0.021713 -0.013191 -0.004100 -0.000484 0.004409 0.010835 -0.003517 -0.000712 -0.009230 0.005549 -0.018888 -0.026273 0.000216 -0.003141 -0.011732 0.004601 -0.001487 -0.011912 -0.012011 0.000322 0.013970 0.003067 0.003919 0.003319 -0.003405 -0.001847 -0.005332 0.001379 -0.001942 0.010768 0.003110 -0.004275 -0.012625 -0.000827 -0.008600 0.000974 -0.011430 0.014079 0.002607 -0.014642 -0.019718 0.011004 0.003858 -0.009979 -0.011213
pari 0.005429 -0.014275 0.002587 0.012340 -0.008673 0.011552 -0.001258 -0.007813 0.001896 0.000982 0.002300 0.001419 -0.010907 -0.006504 -0.005458 0.000433 -0.007506 -0.004568 -0.004705 0.001005 0.000052 0.008371 -0.002650 -0.002675 -0.001328 0.002977 0.010150 -0.000449 0.006693 -0.015126 -0.011852 0.000853 0.000297 -0.002268 0.000305 0.017190 0.004563 0.000877 0.001615 -0.007011 -0.002835 -0.013978 -0.005598 -0.006561 -0.001149 -0.007392 0.003098 0.007339 0.008503 -0.001490
